digraph Tree {
node [shape=box] ;
0 [label="X[3] <= 8.5\ngini = 0.683\nsamples = 78675\nvalue = [21427, 36031, 12339, 626, 7405, 247, 600]"] ;
1 [label="X[3] <= 4.5\ngini = 0.705\nsamples = 54682\nvalue = [18039, 20630, 10701, 415, 4094, 232, 571]"] ;
0 -> 1 [labeldistance=2.5, labelangle=45, headlabel="True"] ;
2 [label="X[4] <= 0.5\ngini = 0.691\nsamples = 32534\nvalue = [7620, 14615, 6848, 238, 2898, 152, 163]"] ;
1 -> 2 ;
3 [label="X[5] <= 8.5\ngini = 0.67\nsamples = 26700\nvalue = [4767, 13047, 6013, 208, 2483, 46, 136]"] ;
2 -> 3 ;
4 [label="X[6] <= 1.5\ngini = 0.696\nsamples = 10250\nvalue = [1707, 4071, 3423, 90, 855, 27, 77]"] ;
3 -> 4 ;
5 [label="X[5] <= 4.0\ngini = 0.669\nsamples = 5964\nvalue = [879, 2814, 1683, 44, 501, 5, 38]"] ;
4 -> 5 ;
6 [label="X[3] <= 2.5\ngini = 0.686\nsamples = 1272\nvalue = [264, 356, 550, 4, 91, 1, 6]"] ;
5 -> 6 ;
7 [label="X[7] <= 0.12\ngini = 0.708\nsamples = 456\nvalue = [151, 143, 129, 2, 27, 0, 4]"] ;
6 -> 7 ;
8 [label="X[7] <= 0.081\ngini = 0.69\nsamples = 314\nvalue = [113, 110, 74, 1, 15, 0, 1]"] ;
7 -> 8 ;
9 [label="X[7] <= 0.018\ngini = 0.691\nsamples = 222\nvalue = [68, 83, 60, 0, 10, 0, 1]"] ;
8 -> 9 ;
10 [label="X[7] <= 0.016\ngini = 0.278\nsamples = 6\nvalue = [1, 0, 5, 0, 0, 0, 0]"] ;
9 -> 10 ;
11 [label="X[0] <= 4.5\ngini = 0.444\nsamples = 3\nvalue = [1, 0, 2, 0, 0, 0, 0]"] ;
10 -> 11 ;
12 [label="gini = 0.0\nsamples = 1\nvalue = [0, 0, 1, 0, 0, 0, 0]"] ;
11 -> 12 ;
13 [label="gini = 0.5\nsamples = 2\nvalue = [1, 0, 1, 0, 0, 0, 0]"] ;
11 -> 13 ;
14 [label="gini = 0.0\nsamples = 3\nvalue = [0, 0, 3, 0, 0, 0, 0]"] ;
10 -> 14 ;
15 [label="X[0] <= 5.5\ngini = 0.689\nsamples = 216\nvalue = [67, 83, 55, 0, 10, 0, 1]"] ;
9 -> 15 ;
16 [label="X[0] <= 2.5\ngini = 0.685\nsamples = 188\nvalue = [61, 69, 51, 0, 6, 0, 1]"] ;
15 -> 16 ;
17 [label="X[7] <= 0.024\ngini = 0.68\nsamples = 99\nvalue = [24, 42, 28, 0, 4, 0, 1]"] ;
16 -> 17 ;
18 [label="X[2] <= 11.0\ngini = 0.469\nsamples = 8\nvalue = [5, 3, 0, 0, 0, 0, 0]"] ;
17 -> 18 ;
19 [label="X[2] <= 1.5\ngini = 0.444\nsamples = 3\nvalue = [1, 2, 0, 0, 0, 0, 0]"] ;
18 -> 19 ;
20 [label="gini = 0.0\nsamples = 1\nvalue = [1, 0, 0, 0, 0, 0, 0]"] ;
19 -> 20 ;
21 [label="gini = 0.0\nsamples = 2\nvalue = [0, 2, 0, 0, 0, 0, 0]"] ;
19 -> 21 ;
22 [label="X[2] <= 21.0\ngini = 0.32\nsamples = 5\nvalue = [4, 1, 0, 0, 0, 0, 0]"] ;
18 -> 22 ;
23 [label="gini = 0.0\nsamples = 2\nvalue = [2, 0, 0, 0, 0, 0, 0]"] ;
22 -> 23 ;
24 [label="gini = 0.444\nsamples = 3\nvalue = [2, 1, 0, 0, 0, 0, 0]"] ;
22 -> 24 ;
25 [label="X[7] <= 0.039\ngini = 0.676\nsamples = 91\nvalue = [19, 39, 28, 0, 4, 0, 1]"] ;
17 -> 25 ;
26 [label="X[7] <= 0.037\ngini = 0.651\nsamples = 26\nvalue = [4, 7, 13, 0, 1, 0, 1]"] ;
25 -> 26 ;
27 [label="gini = 0.684\nsamples = 23\nvalue = [4, 7, 10, 0, 1, 0, 1]"] ;
26 -> 27 ;
28 [label="gini = 0.0\nsamples = 3\nvalue = [0, 0, 3, 0, 0, 0, 0]"] ;
26 -> 28 ;
29 [label="X[2] <= 22.5\ngini = 0.649\nsamples = 65\nvalue = [15, 32, 15, 0, 3, 0, 0]"] ;
25 -> 29 ;
30 [label="gini = 0.598\nsamples = 53\nvalue = [9, 30, 12, 0, 2, 0, 0]"] ;
29 -> 30 ;
31 [label="gini = 0.653\nsamples = 12\nvalue = [6, 2, 3, 0, 1, 0, 0]"] ;
29 -> 31 ;
32 [label="X[7] <= 0.027\ngini = 0.668\nsamples = 89\nvalue = [37, 27, 23, 0, 2, 0, 0]"] ;
16 -> 32 ;
33 [label="X[0] <= 3.5\ngini = 0.494\nsamples = 9\nvalue = [1, 6, 2, 0, 0, 0, 0]"] ;
32 -> 33 ;
34 [label="X[7] <= 0.019\ngini = 0.5\nsamples = 4\nvalue = [0, 2, 2, 0, 0, 0, 0]"] ;
33 -> 34 ;
35 [label="gini = 0.0\nsamples = 1\nvalue = [0, 1, 0, 0, 0, 0, 0]"] ;
34 -> 35 ;
36 [label="gini = 0.444\nsamples = 3\nvalue = [0, 1, 2, 0, 0, 0, 0]"] ;
34 -> 36 ;
37 [label="X[2] <= 5.0\ngini = 0.32\nsamples = 5\nvalue = [1, 4, 0, 0, 0, 0, 0]"] ;
33 -> 37 ;
38 [label="gini = 0.0\nsamples = 1\nvalue = [1, 0, 0, 0, 0, 0, 0]"] ;
37 -> 38 ;
39 [label="gini = 0.0\nsamples = 4\nvalue = [0, 4, 0, 0, 0, 0, 0]"] ;
37 -> 39 ;
40 [label="X[7] <= 0.077\ngini = 0.659\nsamples = 80\nvalue = [36, 21, 21, 0, 2, 0, 0]"] ;
32 -> 40 ;
41 [label="X[7] <= 0.04\ngini = 0.606\nsamples = 53\nvalue = [29, 12, 11, 0, 1, 0, 0]"] ;
40 -> 41 ;
42 [label="gini = 0.491\nsamples = 17\nvalue = [11, 1, 5, 0, 0, 0, 0]"] ;
41 -> 42 ;
43 [label="gini = 0.628\nsamples = 36\nvalue = [18, 11, 6, 0, 1, 0, 0]"] ;
41 -> 43 ;
44 [label="X[1] <= 2.5\ngini = 0.683\nsamples = 27\nvalue = [7, 9, 10, 0, 1, 0, 0]"] ;
40 -> 44 ;
45 [label="gini = 0.684\nsamples = 23\nvalue = [7, 6, 9, 0, 1, 0, 0]"] ;
44 -> 45 ;
46 [label="gini = 0.375\nsamples = 4\nvalue = [0, 3, 1, 0, 0, 0, 0]"] ;
44 -> 46 ;
47 [label="X[7] <= 0.072\ngini = 0.663\nsamples = 28\nvalue = [6, 14, 4, 0, 4, 0, 0]"] ;
15 -> 47 ;
48 [label="X[1] <= 1.5\ngini = 0.591\nsamples = 22\nvalue = [3, 13, 4, 0, 2, 0, 0]"] ;
47 -> 48 ;
49 [label="X[2] <= 6.0\ngini = 0.18\nsamples = 10\nvalue = [0, 9, 1, 0, 0, 0, 0]"] ;
48 -> 49 ;
50 [label="X[7] <= 0.044\ngini = 0.5\nsamples = 2\nvalue = [0, 1, 1, 0, 0, 0, 0]"] ;
49 -> 50 ;
51 [label="gini = 0.0\nsamples = 1\nvalue = [0, 1, 0, 0, 0, 0, 0]"] ;
50 -> 51 ;
52 [label="gini = 0.0\nsamples = 1\nvalue = [0, 0, 1, 0, 0, 0, 0]"] ;
50 -> 52 ;
53 [label="gini = 0.0\nsamples = 8\nvalue = [0, 8, 0, 0, 0, 0, 0]"] ;
49 -> 53 ;
54 [label="X[7] <= 0.029\ngini = 0.736\nsamples = 12\nvalue = [3, 4, 3, 0, 2, 0, 0]"] ;
48 -> 54 ;
55 [label="X[2] <= 16.5\ngini = 0.444\nsamples = 3\nvalue = [1, 0, 0, 0, 2, 0, 0]"] ;
54 -> 55 ;
56 [label="gini = 0.0\nsamples = 1\nvalue = [1, 0, 0, 0, 0, 0, 0]"] ;
55 -> 56 ;
57 [label="gini = 0.0\nsamples = 2\nvalue = [0, 0, 0, 0, 2, 0, 0]"] ;
55 -> 57 ;
58 [label="X[7] <= 0.033\ngini = 0.642\nsamples = 9\nvalue = [2, 4, 3, 0, 0, 0, 0]"] ;
54 -> 58 ;
59 [label="gini = 0.375\nsamples = 4\nvalue = [1, 3, 0, 0, 0, 0, 0]"] ;
58 -> 59 ;
60 [label="gini = 0.56\nsamples = 5\nvalue = [1, 1, 3, 0, 0, 0, 0]"] ;
58 -> 60 ;
61 [label="X[7] <= 0.078\ngini = 0.611\nsamples = 6\nvalue = [3, 1, 0, 0, 2, 0, 0]"] ;
47 -> 61 ;
62 [label="X[2] <= 18.5\ngini = 0.56\nsamples = 5\nvalue = [3, 1, 0, 0, 1, 0, 0]"] ;
61 -> 62 ;
63 [label="gini = 0.0\nsamples = 2\nvalue = [2, 0, 0, 0, 0, 0, 0]"] ;
62 -> 63 ;
64 [label="X[2] <= 20.5\ngini = 0.667\nsamples = 3\nvalue = [1, 1, 0, 0, 1, 0, 0]"] ;
62 -> 64 ;
65 [label="gini = 0.0\nsamples = 1\nvalue = [0, 0, 0, 0, 1, 0, 0]"] ;
64 -> 65 ;
66 [label="gini = 0.5\nsamples = 2\nvalue = [1, 1, 0, 0, 0, 0, 0]"] ;
64 -> 66 ;
67 [label="gini = 0.0\nsamples = 1\nvalue = [0, 0, 0, 0, 1, 0, 0]"] ;
61 -> 67 ;
68 [label="X[7] <= 0.09\ngini = 0.648\nsamples = 92\nvalue = [45, 27, 14, 1, 5, 0, 0]"] ;
8 -> 68 ;
69 [label="X[2] <= 1.5\ngini = 0.349\nsamples = 19\nvalue = [15, 1, 3, 0, 0, 0, 0]"] ;
68 -> 69 ;
70 [label="X[0] <= 4.5\ngini = 0.568\nsamples = 9\nvalue = [5, 1, 3, 0, 0, 0, 0]"] ;
69 -> 70 ;
71 [label="X[2] <= 0.5\ngini = 0.531\nsamples = 8\nvalue = [5, 1, 2, 0, 0, 0, 0]"] ;
70 -> 71 ;
72 [label="X[7] <= 0.087\ngini = 0.5\nsamples = 4\nvalue = [2, 0, 2, 0, 0, 0, 0]"] ;
71 -> 72 ;
73 [label="gini = 0.0\nsamples = 1\nvalue = [1, 0, 0, 0, 0, 0, 0]"] ;
72 -> 73 ;
74 [label="X[7] <= 0.089\ngini = 0.444\nsamples = 3\nvalue = [1, 0, 2, 0, 0, 0, 0]"] ;
72 -> 74 ;
75 [label="gini = 0.0\nsamples = 2\nvalue = [0, 0, 2, 0, 0, 0, 0]"] ;
74 -> 75 ;
76 [label="gini = 0.0\nsamples = 1\nvalue = [1, 0, 0, 0, 0, 0, 0]"] ;
74 -> 76 ;
77 [label="X[1] <= 1.5\ngini = 0.375\nsamples = 4\nvalue = [3, 1, 0, 0, 0, 0, 0]"] ;
71 -> 77 ;
78 [label="gini = 0.0\nsamples = 2\nvalue = [2, 0, 0, 0, 0, 0, 0]"] ;
77 -> 78 ;
79 [label="X[7] <= 0.089\ngini = 0.5\nsamples = 2\nvalue = [1, 1, 0, 0, 0, 0, 0]"] ;
77 -> 79 ;
80 [label="gini = 0.0\nsamples = 1\nvalue = [0, 1, 0, 0, 0, 0, 0]"] ;
79 -> 80 ;
81 [label="gini = 0.0\nsamples = 1\nvalue = [1, 0, 0, 0, 0, 0, 0]"] ;
79 -> 81 ;
82 [label="gini = 0.0\nsamples = 1\nvalue = [0, 0, 1, 0, 0, 0, 0]"] ;
70 -> 82 ;
83 [label="gini = 0.0\nsamples = 10\nvalue = [10, 0, 0, 0, 0, 0, 0]"] ;
69 -> 83 ;
84 [label="X[7] <= 0.092\ngini = 0.677\nsamples = 73\nvalue = [30, 26, 11, 1, 5, 0, 0]"] ;
68 -> 84 ;
85 [label="X[7] <= 0.09\ngini = 0.375\nsamples = 4\nvalue = [0, 0, 3, 0, 1, 0, 0]"] ;
84 -> 85 ;
86 [label="gini = 0.0\nsamples = 1\nvalue = [0, 0, 0, 0, 1, 0, 0]"] ;
85 -> 86 ;
87 [label="gini = 0.0\nsamples = 3\nvalue = [0, 0, 3, 0, 0, 0, 0]"] ;
85 -> 87 ;
88 [label="X[2] <= 6.5\ngini = 0.652\nsamples = 69\nvalue = [30, 26, 8, 1, 4, 0, 0]"] ;
84 -> 88 ;
89 [label="X[7] <= 0.105\ngini = 0.541\nsamples = 26\nvalue = [9, 15, 0, 0, 2, 0, 0]"] ;
88 -> 89 ;
90 [label="gini = 0.0\nsamples = 6\nvalue = [0, 6, 0, 0, 0, 0, 0]"] ;
89 -> 90 ;
91 [label="X[0] <= 2.5\ngini = 0.585\nsamples = 20\nvalue = [9, 9, 0, 0, 2, 0, 0]"] ;
89 -> 91 ;
92 [label="X[7] <= 0.111\ngini = 0.463\nsamples = 11\nvalue = [7, 4, 0, 0, 0, 0, 0]"] ;
91 -> 92 ;
93 [label="gini = 0.49\nsamples = 7\nvalue = [3, 4, 0, 0, 0, 0, 0]"] ;
92 -> 93 ;
94 [label="gini = 0.0\nsamples = 4\nvalue = [4, 0, 0, 0, 0, 0, 0]"] ;
92 -> 94 ;
95 [label="X[2] <= 0.5\ngini = 0.593\nsamples = 9\nvalue = [2, 5, 0, 0, 2, 0, 0]"] ;
91 -> 95 ;
96 [label="gini = 0.444\nsamples = 3\nvalue = [0, 1, 0, 0, 2, 0, 0]"] ;
95 -> 96 ;
97 [label="gini = 0.444\nsamples = 6\nvalue = [2, 4, 0, 0, 0, 0, 0]"] ;
95 -> 97 ;
98 [label="X[7] <= 0.111\ngini = 0.659\nsamples = 43\nvalue = [21, 11, 8, 1, 2, 0, 0]"] ;
88 -> 98 ;
99 [label="X[7] <= 0.108\ngini = 0.533\nsamples = 28\nvalue = [18, 5, 4, 0, 1, 0, 0]"] ;
98 -> 99 ;
100 [label="X[7] <= 0.096\ngini = 0.642\nsamples = 18\nvalue = [9, 5, 3, 0, 1, 0, 0]"] ;
99 -> 100 ;
101 [label="gini = 0.219\nsamples = 8\nvalue = [7, 1, 0, 0, 0, 0, 0]"] ;
100 -> 101 ;
102 [label="gini = 0.7\nsamples = 10\nvalue = [2, 4, 3, 0, 1, 0, 0]"] ;
100 -> 102 ;
103 [label="X[0] <= 2.5\ngini = 0.18\nsamples = 10\nvalue = [9, 0, 1, 0, 0, 0, 0]"] ;
99 -> 103 ;
104 [label="gini = 0.0\nsamples = 5\nvalue = [5, 0, 0, 0, 0, 0, 0]"] ;
103 -> 104 ;
105 [label="gini = 0.32\nsamples = 5\nvalue = [4, 0, 1, 0, 0, 0, 0]"] ;
103 -> 105 ;
106 [label="X[7] <= 0.112\ngini = 0.72\nsamples = 15\nvalue = [3, 6, 4, 1, 1, 0, 0]"] ;
98 -> 106 ;
107 [label="X[1] <= 0.5\ngini = 0.32\nsamples = 5\nvalue = [1, 4, 0, 0, 0, 0, 0]"] ;
106 -> 107 ;
108 [label="gini = 0.0\nsamples = 1\nvalue = [1, 0, 0, 0, 0, 0, 0]"] ;
107 -> 108 ;
109 [label="gini = 0.0\nsamples = 4\nvalue = [0, 4, 0, 0, 0, 0, 0]"] ;
107 -> 109 ;
110 [label="X[2] <= 21.5\ngini = 0.74\nsamples = 10\nvalue = [2, 2, 4, 1, 1, 0, 0]"] ;
106 -> 110 ;
111 [label="gini = 0.56\nsamples = 5\nvalue = [0, 0, 3, 1, 1, 0, 0]"] ;
110 -> 111 ;
112 [label="gini = 0.64\nsamples = 5\nvalue = [2, 2, 1, 0, 0, 0, 0]"] ;
110 -> 112 ;
113 [label="X[7] <= 0.125\ngini = 0.717\nsamples = 142\nvalue = [38, 33, 55, 1, 12, 0, 3]"] ;
7 -> 113 ;
114 [label="X[0] <= 1.5\ngini = 0.5\nsamples = 6\nvalue = [0, 1, 1, 0, 4, 0, 0]"] ;
113 -> 114 ;
115 [label="gini = 0.0\nsamples = 1\nvalue = [0, 1, 0, 0, 0, 0, 0]"] ;
114 -> 115 ;
116 [label="X[7] <= 0.121\ngini = 0.32\nsamples = 5\nvalue = [0, 0, 1, 0, 4, 0, 0]"] ;
114 -> 116 ;
117 [label="gini = 0.5\nsamples = 2\nvalue = [0, 0, 1, 0, 1, 0, 0]"] ;
116 -> 117 ;
118 [label="gini = 0.0\nsamples = 3\nvalue = [0, 0, 0, 0, 3, 0, 0]"] ;
116 -> 118 ;
119 [label="X[7] <= 0.206\ngini = 0.705\nsamples = 136\nvalue = [38, 32, 54, 1, 8, 0, 3]"] ;
113 -> 119 ;
120 [label="X[2] <= 2.5\ngini = 0.693\nsamples = 102\nvalue = [23, 28, 43, 1, 5, 0, 2]"] ;
119 -> 120 ;
121 [label="X[0] <= 5.0\ngini = 0.648\nsamples = 16\nvalue = [8, 4, 3, 0, 0, 0, 1]"] ;
120 -> 121 ;
122 [label="X[7] <= 0.149\ngini = 0.582\nsamples = 14\nvalue = [8, 4, 1, 0, 0, 0, 1]"] ;
121 -> 122 ;
123 [label="gini = 0.0\nsamples = 4\nvalue = [4, 0, 0, 0, 0, 0, 0]"] ;
122 -> 123 ;
124 [label="X[0] <= 3.5\ngini = 0.66\nsamples = 10\nvalue = [4, 4, 1, 0, 0, 0, 1]"] ;
122 -> 124 ;
125 [label="X[0] <= 1.5\ngini = 0.593\nsamples = 9\nvalue = [4, 4, 1, 0, 0, 0, 0]"] ;
124 -> 125 ;
126 [label="gini = 0.5\nsamples = 2\nvalue = [1, 0, 1, 0, 0, 0, 0]"] ;
125 -> 126 ;
127 [label="gini = 0.49\nsamples = 7\nvalue = [3, 4, 0, 0, 0, 0, 0]"] ;
125 -> 127 ;
128 [label="gini = 0.0\nsamples = 1\nvalue = [0, 0, 0, 0, 0, 0, 1]"] ;
124 -> 128 ;
129 [label="gini = 0.0\nsamples = 2\nvalue = [0, 0, 2, 0, 0, 0, 0]"] ;
121 -> 129 ;
130 [label="X[1] <= 0.5\ngini = 0.672\nsamples = 86\nvalue = [15, 24, 40, 1, 5, 0, 1]"] ;
120 -> 130 ;
131 [label="X[0] <= 0.5\ngini = 0.395\nsamples = 21\nvalue = [1, 3, 16, 0, 1, 0, 0]"] ;
130 -> 131 ;
132 [label="X[7] <= 0.173\ngini = 0.72\nsamples = 5\nvalue = [1, 1, 2, 0, 1, 0, 0]"] ;
131 -> 132 ;
133 [label="X[7] <= 0.127\ngini = 0.444\nsamples = 3\nvalue = [0, 1, 2, 0, 0, 0, 0]"] ;
132 -> 133 ;
134 [label="gini = 0.0\nsamples = 1\nvalue = [0, 0, 1, 0, 0, 0, 0]"] ;
133 -> 134 ;
135 [label="gini = 0.5\nsamples = 2\nvalue = [0, 1, 1, 0, 0, 0, 0]"] ;
133 -> 135 ;
136 [label="X[5] <= 2.5\ngini = 0.5\nsamples = 2\nvalue = [1, 0, 0, 0, 1, 0, 0]"] ;
132 -> 136 ;
137 [label="gini = 0.0\nsamples = 1\nvalue = [0, 0, 0, 0, 1, 0, 0]"] ;
136 -> 137 ;
138 [label="gini = 0.0\nsamples = 1\nvalue = [1, 0, 0, 0, 0, 0, 0]"] ;
136 -> 138 ;
139 [label="X[0] <= 5.5\ngini = 0.219\nsamples = 16\nvalue = [0, 2, 14, 0, 0, 0, 0]"] ;
131 -> 139 ;
140 [label="gini = 0.0\nsamples = 12\nvalue = [0, 0, 12, 0, 0, 0, 0]"] ;
139 -> 140 ;
141 [label="X[7] <= 0.138\ngini = 0.5\nsamples = 4\nvalue = [0, 2, 2, 0, 0, 0, 0]"] ;
139 -> 141 ;
142 [label="gini = 0.0\nsamples = 1\nvalue = [0, 1, 0, 0, 0, 0, 0]"] ;
141 -> 142 ;
143 [label="gini = 0.444\nsamples = 3\nvalue = [0, 1, 2, 0, 0, 0, 0]"] ;
141 -> 143 ;
144 [label="X[7] <= 0.19\ngini = 0.709\nsamples = 65\nvalue = [14, 21, 24, 1, 4, 0, 1]"] ;
130 -> 144 ;
145 [label="X[7] <= 0.174\ngini = 0.706\nsamples = 51\nvalue = [12, 13, 21, 1, 3, 0, 1]"] ;
144 -> 145 ;
146 [label="X[1] <= 1.5\ngini = 0.735\nsamples = 40\nvalue = [10, 13, 12, 1, 3, 0, 1]"] ;
145 -> 146 ;
147 [label="gini = 0.569\nsamples = 12\nvalue = [6, 5, 1, 0, 0, 0, 0]"] ;
146 -> 147 ;
148 [label="gini = 0.73\nsamples = 28\nvalue = [4, 8, 11, 1, 3, 0, 1]"] ;
146 -> 148 ;
149 [label="X[7] <= 0.186\ngini = 0.298\nsamples = 11\nvalue = [2, 0, 9, 0, 0, 0, 0]"] ;
145 -> 149 ;
150 [label="gini = 0.18\nsamples = 10\nvalue = [1, 0, 9, 0, 0, 0, 0]"] ;
149 -> 150 ;
151 [label="gini = 0.0\nsamples = 1\nvalue = [1, 0, 0, 0, 0, 0, 0]"] ;
149 -> 151 ;
152 [label="X[0] <= 2.5\ngini = 0.602\nsamples = 14\nvalue = [2, 8, 3, 0, 1, 0, 0]"] ;
144 -> 152 ;
153 [label="X[7] <= 0.201\ngini = 0.56\nsamples = 5\nvalue = [1, 1, 3, 0, 0, 0, 0]"] ;
152 -> 153 ;
154 [label="gini = 0.0\nsamples = 2\nvalue = [0, 0, 2, 0, 0, 0, 0]"] ;
153 -> 154 ;
155 [label="gini = 0.667\nsamples = 3\nvalue = [1, 1, 1, 0, 0, 0, 0]"] ;
153 -> 155 ;
156 [label="X[2] <= 19.5\ngini = 0.37\nsamples = 9\nvalue = [1, 7, 0, 0, 1, 0, 0]"] ;
152 -> 156 ;
157 [label="gini = 0.245\nsamples = 7\nvalue = [0, 6, 0, 0, 1, 0, 0]"] ;
156 -> 157 ;
158 [label="gini = 0.5\nsamples = 2\nvalue = [1, 1, 0, 0, 0, 0, 0]"] ;
156 -> 158 ;
159 [label="X[2] <= 22.5\ngini = 0.678\nsamples = 34\nvalue = [15, 4, 11, 0, 3, 0, 1]"] ;
119 -> 159 ;
160 [label="X[7] <= 0.212\ngini = 0.656\nsamples = 30\nvalue = [15, 4, 8, 0, 2, 0, 1]"] ;
159 -> 160 ;
161 [label="gini = 0.0\nsamples = 1\nvalue = [0, 0, 0, 0, 1, 0, 0]"] ;
160 -> 161 ;
162 [label="X[2] <= 8.5\ngini = 0.635\nsamples = 29\nvalue = [15, 4, 8, 0, 1, 0, 1]"] ;
160 -> 162 ;
163 [label="X[2] <= 5.5\ngini = 0.722\nsamples = 6\nvalue = [1, 2, 2, 0, 1, 0, 0]"] ;
162 -> 163 ;
164 [label="X[7] <= 0.227\ngini = 0.64\nsamples = 5\nvalue = [1, 2, 2, 0, 0, 0, 0]"] ;
163 -> 164 ;
165 [label="gini = 0.0\nsamples = 1\nvalue = [1, 0, 0, 0, 0, 0, 0]"] ;
164 -> 165 ;
166 [label="gini = 0.5\nsamples = 4\nvalue = [0, 2, 2, 0, 0, 0, 0]"] ;
164 -> 166 ;
167 [label="gini = 0.0\nsamples = 1\nvalue = [0, 0, 0, 0, 1, 0, 0]"] ;
163 -> 167 ;
168 [label="X[7] <= 0.302\ngini = 0.552\nsamples = 23\nvalue = [14, 2, 6, 0, 0, 0, 1]"] ;
162 -> 168 ;
169 [label="X[1] <= 0.5\ngini = 0.494\nsamples = 21\nvalue = [14, 1, 5, 0, 0, 0, 1]"] ;
168 -> 169 ;
170 [label="gini = 0.0\nsamples = 6\nvalue = [6, 0, 0, 0, 0, 0, 0]"] ;
169 -> 170 ;
171 [label="gini = 0.596\nsamples = 15\nvalue = [8, 1, 5, 0, 0, 0, 1]"] ;
169 -> 171 ;
172 [label="X[0] <= 2.5\ngini = 0.5\nsamples = 2\nvalue = [0, 1, 1, 0, 0, 0, 0]"] ;
168 -> 172 ;
173 [label="gini = 0.0\nsamples = 1\nvalue = [0, 0, 1, 0, 0, 0, 0]"] ;
172 -> 173 ;
174 [label="gini = 0.0\nsamples = 1\nvalue = [0, 1, 0, 0, 0, 0, 0]"] ;
172 -> 174 ;
175 [label="X[7] <= 0.253\ngini = 0.375\nsamples = 4\nvalue = [0, 0, 3, 0, 1, 0, 0]"] ;
159 -> 175 ;
176 [label="X[0] <= 4.0\ngini = 0.5\nsamples = 2\nvalue = [0, 0, 1, 0, 1, 0, 0]"] ;
175 -> 176 ;
177 [label="gini = 0.0\nsamples = 1\nvalue = [0, 0, 0, 0, 1, 0, 0]"] ;
176 -> 177 ;
178 [label="gini = 0.0\nsamples = 1\nvalue = [0, 0, 1, 0, 0, 0, 0]"] ;
176 -> 178 ;
179 [label="gini = 0.0\nsamples = 2\nvalue = [0, 0, 2, 0, 0, 0, 0]"] ;
175 -> 179 ;
180 [label="X[7] <= 0.148\ngini = 0.64\nsamples = 816\nvalue = [113, 213, 421, 2, 64, 1, 2]"] ;
6 -> 180 ;
181 [label="X[7] <= 0.06\ngini = 0.63\nsamples = 642\nvalue = [93, 150, 345, 2, 49, 1, 2]"] ;
180 -> 181 ;
182 [label="X[7] <= 0.033\ngini = 0.694\nsamples = 93\nvalue = [11, 31, 37, 0, 14, 0, 0]"] ;
181 -> 182 ;
183 [label="X[2] <= 17.0\ngini = 0.601\nsamples = 26\nvalue = [2, 5, 15, 0, 4, 0, 0]"] ;
182 -> 183 ;
184 [label="X[2] <= 3.0\ngini = 0.724\nsamples = 14\nvalue = [2, 3, 5, 0, 4, 0, 0]"] ;
183 -> 184 ;
185 [label="gini = 0.0\nsamples = 3\nvalue = [0, 0, 3, 0, 0, 0, 0]"] ;
184 -> 185 ;
186 [label="X[2] <= 12.5\ngini = 0.727\nsamples = 11\nvalue = [2, 3, 2, 0, 4, 0, 0]"] ;
184 -> 186 ;
187 [label="X[0] <= 0.5\ngini = 0.611\nsamples = 6\nvalue = [0, 3, 1, 0, 2, 0, 0]"] ;
186 -> 187 ;
188 [label="gini = 0.0\nsamples = 1\nvalue = [0, 0, 0, 0, 1, 0, 0]"] ;
187 -> 188 ;
189 [label="X[1] <= 2.0\ngini = 0.56\nsamples = 5\nvalue = [0, 3, 1, 0, 1, 0, 0]"] ;
187 -> 189 ;
190 [label="gini = 0.5\nsamples = 2\nvalue = [0, 1, 1, 0, 0, 0, 0]"] ;
189 -> 190 ;
191 [label="gini = 0.444\nsamples = 3\nvalue = [0, 2, 0, 0, 1, 0, 0]"] ;
189 -> 191 ;
192 [label="X[1] <= 1.0\ngini = 0.64\nsamples = 5\nvalue = [2, 0, 1, 0, 2, 0, 0]"] ;
186 -> 192 ;
193 [label="X[2] <= 15.5\ngini = 0.625\nsamples = 4\nvalue = [1, 0, 1, 0, 2, 0, 0]"] ;
192 -> 193 ;
194 [label="gini = 0.667\nsamples = 3\nvalue = [1, 0, 1, 0, 1, 0, 0]"] ;
193 -> 194 ;
195 [label="gini = 0.0\nsamples = 1\nvalue = [0, 0, 0, 0, 1, 0, 0]"] ;
193 -> 195 ;
196 [label="gini = 0.0\nsamples = 1\nvalue = [1, 0, 0, 0, 0, 0, 0]"] ;
192 -> 196 ;
197 [label="X[0] <= 5.5\ngini = 0.278\nsamples = 12\nvalue = [0, 2, 10, 0, 0, 0, 0]"] ;
183 -> 197 ;
198 [label="gini = 0.0\nsamples = 9\nvalue = [0, 0, 9, 0, 0, 0, 0]"] ;
197 -> 198 ;
199 [label="X[7] <= 0.032\ngini = 0.444\nsamples = 3\nvalue = [0, 2, 1, 0, 0, 0, 0]"] ;
197 -> 199 ;
200 [label="gini = 0.0\nsamples = 2\nvalue = [0, 2, 0, 0, 0, 0, 0]"] ;
199 -> 200 ;
201 [label="gini = 0.0\nsamples = 1\nvalue = [0, 0, 1, 0, 0, 0, 0]"] ;
199 -> 201 ;
202 [label="X[2] <= 17.5\ngini = 0.701\nsamples = 67\nvalue = [9, 26, 22, 0, 10, 0, 0]"] ;
182 -> 202 ;
203 [label="X[5] <= 2.5\ngini = 0.689\nsamples = 33\nvalue = [5, 8, 15, 0, 5, 0, 0]"] ;
202 -> 203 ;
204 [label="X[7] <= 0.057\ngini = 0.655\nsamples = 20\nvalue = [5, 2, 10, 0, 3, 0, 0]"] ;
203 -> 204 ;
205 [label="X[7] <= 0.043\ngini = 0.693\nsamples = 15\nvalue = [5, 2, 6, 0, 2, 0, 0]"] ;
204 -> 205 ;
206 [label="X[2] <= 14.5\ngini = 0.628\nsamples = 11\nvalue = [2, 1, 6, 0, 2, 0, 0]"] ;
205 -> 206 ;
207 [label="gini = 0.64\nsamples = 5\nvalue = [2, 1, 2, 0, 0, 0, 0]"] ;
206 -> 207 ;
208 [label="gini = 0.444\nsamples = 6\nvalue = [0, 0, 4, 0, 2, 0, 0]"] ;
206 -> 208 ;
209 [label="X[7] <= 0.056\ngini = 0.375\nsamples = 4\nvalue = [3, 1, 0, 0, 0, 0, 0]"] ;
205 -> 209 ;
210 [label="gini = 0.0\nsamples = 3\nvalue = [3, 0, 0, 0, 0, 0, 0]"] ;
209 -> 210 ;
211 [label="gini = 0.0\nsamples = 1\nvalue = [0, 1, 0, 0, 0, 0, 0]"] ;
209 -> 211 ;
212 [label="X[0] <= 4.5\ngini = 0.32\nsamples = 5\nvalue = [0, 0, 4, 0, 1, 0, 0]"] ;
204 -> 212 ;
213 [label="gini = 0.0\nsamples = 3\nvalue = [0, 0, 3, 0, 0, 0, 0]"] ;
212 -> 213 ;
214 [label="gini = 0.5\nsamples = 2\nvalue = [0, 0, 1, 0, 1, 0, 0]"] ;
212 -> 214 ;
215 [label="X[0] <= 5.5\ngini = 0.615\nsamples = 13\nvalue = [0, 6, 5, 0, 2, 0, 0]"] ;
203 -> 215 ;
216 [label="X[0] <= 0.5\ngini = 0.56\nsamples = 10\nvalue = [0, 6, 2, 0, 2, 0, 0]"] ;
215 -> 216 ;
217 [label="gini = 0.0\nsamples = 1\nvalue = [0, 0, 0, 0, 1, 0, 0]"] ;
216 -> 217 ;
218 [label="X[7] <= 0.056\ngini = 0.494\nsamples = 9\nvalue = [0, 6, 2, 0, 1, 0, 0]"] ;
216 -> 218 ;
219 [label="gini = 0.0\nsamples = 3\nvalue = [0, 3, 0, 0, 0, 0, 0]"] ;
218 -> 219 ;
220 [label="gini = 0.611\nsamples = 6\nvalue = [0, 3, 2, 0, 1, 0, 0]"] ;
218 -> 220 ;
221 [label="gini = 0.0\nsamples = 3\nvalue = [0, 0, 3, 0, 0, 0, 0]"] ;
215 -> 221 ;
222 [label="X[1] <= 2.5\ngini = 0.642\nsamples = 34\nvalue = [4, 18, 7, 0, 5, 0, 0]"] ;
202 -> 222 ;
223 [label="X[7] <= 0.036\ngini = 0.51\nsamples = 24\nvalue = [3, 16, 4, 0, 1, 0, 0]"] ;
222 -> 223 ;
224 [label="gini = 0.0\nsamples = 2\nvalue = [2, 0, 0, 0, 0, 0, 0]"] ;
223 -> 224 ;
225 [label="X[2] <= 18.5\ngini = 0.434\nsamples = 22\nvalue = [1, 16, 4, 0, 1, 0, 0]"] ;
223 -> 225 ;
226 [label="X[7] <= 0.049\ngini = 0.625\nsamples = 4\nvalue = [0, 1, 2, 0, 1, 0, 0]"] ;
225 -> 226 ;
227 [label="gini = 0.0\nsamples = 2\nvalue = [0, 0, 2, 0, 0, 0, 0]"] ;
226 -> 227 ;
228 [label="gini = 0.5\nsamples = 2\nvalue = [0, 1, 0, 0, 1, 0, 0]"] ;
226 -> 228 ;
229 [label="X[0] <= 0.5\ngini = 0.29\nsamples = 18\nvalue = [1, 15, 2, 0, 0, 0, 0]"] ;
225 -> 229 ;
230 [label="gini = 0.625\nsamples = 4\nvalue = [1, 2, 1, 0, 0, 0, 0]"] ;
229 -> 230 ;
231 [label="gini = 0.133\nsamples = 14\nvalue = [0, 13, 1, 0, 0, 0, 0]"] ;
229 -> 231 ;
232 [label="X[0] <= 4.5\ngini = 0.7\nsamples = 10\nvalue = [1, 2, 3, 0, 4, 0, 0]"] ;
222 -> 232 ;
233 [label="gini = 0.0\nsamples = 2\nvalue = [0, 2, 0, 0, 0, 0, 0]"] ;
232 -> 233 ;
234 [label="X[7] <= 0.048\ngini = 0.594\nsamples = 8\nvalue = [1, 0, 3, 0, 4, 0, 0]"] ;
232 -> 234 ;
235 [label="X[2] <= 22.0\ngini = 0.56\nsamples = 5\nvalue = [1, 0, 3, 0, 1, 0, 0]"] ;
234 -> 235 ;
236 [label="gini = 0.444\nsamples = 3\nvalue = [1, 0, 2, 0, 0, 0, 0]"] ;
235 -> 236 ;
237 [label="gini = 0.5\nsamples = 2\nvalue = [0, 0, 1, 0, 1, 0, 0]"] ;
235 -> 237 ;
238 [label="gini = 0.0\nsamples = 3\nvalue = [0, 0, 0, 0, 3, 0, 0]"] ;
234 -> 238 ;
239 [label="X[7] <= 0.083\ngini = 0.612\nsamples = 549\nvalue = [82, 119, 308, 2, 35, 1, 2]"] ;
181 -> 239 ;
240 [label="X[7] <= 0.082\ngini = 0.494\nsamples = 102\nvalue = [14, 10, 70, 0, 8, 0, 0]"] ;
239 -> 240 ;
241 [label="X[7] <= 0.081\ngini = 0.553\nsamples = 79\nvalue = [12, 9, 50, 0, 8, 0, 0]"] ;
240 -> 241 ;
242 [label="X[1] <= 0.5\ngini = 0.536\nsamples = 77\nvalue = [11, 9, 50, 0, 7, 0, 0]"] ;
241 -> 242 ;
243 [label="X[0] <= 3.5\ngini = 0.37\nsamples = 18\nvalue = [2, 0, 14, 0, 2, 0, 0]"] ;
242 -> 243 ;
244 [label="gini = 0.0\nsamples = 6\nvalue = [0, 0, 6, 0, 0, 0, 0]"] ;
243 -> 244 ;
245 [label="X[0] <= 4.5\ngini = 0.5\nsamples = 12\nvalue = [2, 0, 8, 0, 2, 0, 0]"] ;
243 -> 245 ;
246 [label="gini = 0.0\nsamples = 1\nvalue = [0, 0, 0, 0, 1, 0, 0]"] ;
245 -> 246 ;
247 [label="gini = 0.43\nsamples = 11\nvalue = [2, 0, 8, 0, 1, 0, 0]"] ;
245 -> 247 ;
248 [label="X[1] <= 1.5\ngini = 0.574\nsamples = 59\nvalue = [9, 9, 36, 0, 5, 0, 0]"] ;
242 -> 248 ;
249 [label="X[2] <= 5.0\ngini = 0.705\nsamples = 20\nvalue = [5, 5, 8, 0, 2, 0, 0]"] ;
248 -> 249 ;
250 [label="gini = 0.5\nsamples = 4\nvalue = [2, 0, 0, 0, 2, 0, 0]"] ;
249 -> 250 ;
251 [label="gini = 0.617\nsamples = 16\nvalue = [3, 5, 8, 0, 0, 0, 0]"] ;
249 -> 251 ;
252 [label="X[2] <= 21.5\ngini = 0.458\nsamples = 39\nvalue = [4, 4, 28, 0, 3, 0, 0]"] ;
248 -> 252 ;
253 [label="gini = 0.415\nsamples = 36\nvalue = [2, 4, 27, 0, 3, 0, 0]"] ;
252 -> 253 ;
254 [label="gini = 0.444\nsamples = 3\nvalue = [2, 0, 1, 0, 0, 0, 0]"] ;
252 -> 254 ;
255 [label="X[1] <= 2.5\ngini = 0.5\nsamples = 2\nvalue = [1, 0, 0, 0, 1, 0, 0]"] ;
241 -> 255 ;
256 [label="gini = 0.0\nsamples = 1\nvalue = [0, 0, 0, 0, 1, 0, 0]"] ;
255 -> 256 ;
257 [label="gini = 0.0\nsamples = 1\nvalue = [1, 0, 0, 0, 0, 0, 0]"] ;
255 -> 257 ;
258 [label="X[2] <= 9.0\ngini = 0.234\nsamples = 23\nvalue = [2, 1, 20, 0, 0, 0, 0]"] ;
240 -> 258 ;
259 [label="X[7] <= 0.082\ngini = 0.5\nsamples = 4\nvalue = [2, 0, 2, 0, 0, 0, 0]"] ;
258 -> 259 ;
260 [label="X[1] <= 1.5\ngini = 0.444\nsamples = 3\nvalue = [1, 0, 2, 0, 0, 0, 0]"] ;
259 -> 260 ;
261 [label="gini = 0.5\nsamples = 2\nvalue = [1, 0, 1, 0, 0, 0, 0]"] ;
260 -> 261 ;
262 [label="gini = 0.0\nsamples = 1\nvalue = [0, 0, 1, 0, 0, 0, 0]"] ;
260 -> 262 ;
263 [label="gini = 0.0\nsamples = 1\nvalue = [1, 0, 0, 0, 0, 0, 0]"] ;
259 -> 263 ;
264 [label="X[0] <= 0.5\ngini = 0.1\nsamples = 19\nvalue = [0, 1, 18, 0, 0, 0, 0]"] ;
258 -> 264 ;
265 [label="X[1] <= 1.5\ngini = 0.375\nsamples = 4\nvalue = [0, 1, 3, 0, 0, 0, 0]"] ;
264 -> 265 ;
266 [label="gini = 0.0\nsamples = 2\nvalue = [0, 0, 2, 0, 0, 0, 0]"] ;
265 -> 266 ;
267 [label="gini = 0.5\nsamples = 2\nvalue = [0, 1, 1, 0, 0, 0, 0]"] ;
265 -> 267 ;
268 [label="gini = 0.0\nsamples = 15\nvalue = [0, 0, 15, 0, 0, 0, 0]"] ;
264 -> 268 ;
269 [label="X[7] <= 0.134\ngini = 0.63\nsamples = 447\nvalue = [68, 109, 238, 2, 27, 1, 2]"] ;
239 -> 269 ;
270 [label="X[7] <= 0.134\ngini = 0.651\nsamples = 304\nvalue = [46, 85, 150, 1, 20, 0, 2]"] ;
269 -> 270 ;
271 [label="X[0] <= 3.5\ngini = 0.645\nsamples = 287\nvalue = [44, 73, 147, 1, 20, 0, 2]"] ;
270 -> 271 ;
272 [label="X[1] <= 1.5\ngini = 0.585\nsamples = 143\nvalue = [22, 26, 85, 0, 10, 0, 0]"] ;
271 -> 272 ;
273 [label="X[2] <= 9.5\ngini = 0.489\nsamples = 67\nvalue = [7, 11, 46, 0, 3, 0, 0]"] ;
272 -> 273 ;
274 [label="gini = 0.647\nsamples = 23\nvalue = [4, 7, 11, 0, 1, 0, 0]"] ;
273 -> 274 ;
275 [label="gini = 0.352\nsamples = 44\nvalue = [3, 4, 35, 0, 2, 0, 0]"] ;
273 -> 275 ;
276 [label="X[7] <= 0.096\ngini = 0.65\nsamples = 76\nvalue = [15, 15, 39, 0, 7, 0, 0]"] ;
272 -> 276 ;
277 [label="gini = 0.748\nsamples = 19\nvalue = [5, 5, 5, 0, 4, 0, 0]"] ;
276 -> 277 ;
278 [label="gini = 0.58\nsamples = 57\nvalue = [10, 10, 34, 0, 3, 0, 0]"] ;
276 -> 278 ;
279 [label="X[2] <= 22.5\ngini = 0.68\nsamples = 144\nvalue = [22, 47, 62, 1, 10, 0, 2]"] ;
271 -> 279 ;
280 [label="X[2] <= 20.5\ngini = 0.668\nsamples = 124\nvalue = [19, 38, 57, 1, 7, 0, 2]"] ;
279 -> 280 ;
281 [label="gini = 0.671\nsamples = 114\nvalue = [17, 38, 50, 1, 6, 0, 2]"] ;
280 -> 281 ;
282 [label="gini = 0.46\nsamples = 10\nvalue = [2, 0, 7, 0, 1, 0, 0]"] ;
280 -> 282 ;
283 [label="X[1] <= 2.5\ngini = 0.69\nsamples = 20\nvalue = [3, 9, 5, 0, 3, 0, 0]"] ;
279 -> 283 ;
284 [label="gini = 0.681\nsamples = 12\nvalue = [2, 4, 5, 0, 1, 0, 0]"] ;
283 -> 284 ;
285 [label="gini = 0.531\nsamples = 8\nvalue = [1, 5, 0, 0, 2, 0, 0]"] ;
283 -> 285 ;
286 [label="X[2] <= 2.5\ngini = 0.457\nsamples = 17\nvalue = [2, 12, 3, 0, 0, 0, 0]"] ;
270 -> 286 ;
287 [label="X[0] <= 2.5\ngini = 0.667\nsamples = 3\nvalue = [1, 1, 1, 0, 0, 0, 0]"] ;
286 -> 287 ;
288 [label="gini = 0.5\nsamples = 2\nvalue = [1, 0, 1, 0, 0, 0, 0]"] ;
287 -> 288 ;
289 [label="gini = 0.0\nsamples = 1\nvalue = [0, 1, 0, 0, 0, 0, 0]"] ;
287 -> 289 ;
290 [label="X[1] <= 1.5\ngini = 0.357\nsamples = 14\nvalue = [1, 11, 2, 0, 0, 0, 0]"] ;
286 -> 290 ;
291 [label="X[2] <= 19.0\ngini = 0.245\nsamples = 7\nvalue = [1, 6, 0, 0, 0, 0, 0]"] ;
290 -> 291 ;
292 [label="gini = 0.0\nsamples = 5\nvalue = [0, 5, 0, 0, 0, 0, 0]"] ;
291 -> 292 ;
293 [label="gini = 0.5\nsamples = 2\nvalue = [1, 1, 0, 0, 0, 0, 0]"] ;
291 -> 293 ;
294 [label="X[2] <= 15.0\ngini = 0.408\nsamples = 7\nvalue = [0, 5, 2, 0, 0, 0, 0]"] ;
290 -> 294 ;
295 [label="gini = 0.0\nsamples = 1\nvalue = [0, 0, 1, 0, 0, 0, 0]"] ;
294 -> 295 ;
296 [label="gini = 0.278\nsamples = 6\nvalue = [0, 5, 1, 0, 0, 0, 0]"] ;
294 -> 296 ;
297 [label="X[2] <= 17.5\ngini = 0.567\nsamples = 143\nvalue = [22, 24, 88, 1, 7, 1, 0]"] ;
269 -> 297 ;
298 [label="X[1] <= 0.5\ngini = 0.57\nsamples = 86\nvalue = [18, 12, 52, 1, 2, 1, 0]"] ;
297 -> 298 ;
299 [label="X[0] <= 5.5\ngini = 0.376\nsamples = 22\nvalue = [2, 3, 17, 0, 0, 0, 0]"] ;
298 -> 299 ;
300 [label="X[7] <= 0.141\ngini = 0.227\nsamples = 16\nvalue = [1, 1, 14, 0, 0, 0, 0]"] ;
299 -> 300 ;
301 [label="gini = 0.153\nsamples = 12\nvalue = [1, 0, 11, 0, 0, 0, 0]"] ;
300 -> 301 ;
302 [label="gini = 0.375\nsamples = 4\nvalue = [0, 1, 3, 0, 0, 0, 0]"] ;
300 -> 302 ;
303 [label="X[2] <= 13.5\ngini = 0.611\nsamples = 6\nvalue = [1, 2, 3, 0, 0, 0, 0]"] ;
299 -> 303 ;
304 [label="gini = 0.5\nsamples = 4\nvalue = [0, 2, 2, 0, 0, 0, 0]"] ;
303 -> 304 ;
305 [label="gini = 0.5\nsamples = 2\nvalue = [1, 0, 1, 0, 0, 0, 0]"] ;
303 -> 305 ;
306 [label="X[1] <= 1.5\ngini = 0.617\nsamples = 64\nvalue = [16, 9, 35, 1, 2, 1, 0]"] ;
298 -> 306 ;
307 [label="X[2] <= 14.5\ngini = 0.655\nsamples = 20\nvalue = [9, 2, 7, 0, 2, 0, 0]"] ;
306 -> 307 ;
308 [label="gini = 0.68\nsamples = 16\nvalue = [5, 2, 7, 0, 2, 0, 0]"] ;
307 -> 308 ;
309 [label="gini = 0.0\nsamples = 4\nvalue = [4, 0, 0, 0, 0, 0, 0]"] ;
307 -> 309 ;
310 [label="X[7] <= 0.139\ngini = 0.543\nsamples = 44\nvalue = [7, 7, 28, 1, 0, 1, 0]"] ;
306 -> 310 ;
311 [label="gini = 0.46\nsamples = 30\nvalue = [3, 6, 21, 0, 0, 0, 0]"] ;
310 -> 311 ;
312 [label="gini = 0.653\nsamples = 14\nvalue = [4, 1, 7, 1, 0, 1, 0]"] ;
310 -> 312 ;
313 [label="X[1] <= 2.5\ngini = 0.544\nsamples = 57\nvalue = [4, 12, 36, 0, 5, 0, 0]"] ;
297 -> 313 ;
314 [label="X[7] <= 0.136\ngini = 0.606\nsamples = 43\nvalue = [4, 11, 24, 0, 4, 0, 0]"] ;
313 -> 314 ;
315 [label="X[0] <= 5.5\ngini = 0.637\nsamples = 33\nvalue = [3, 11, 16, 0, 3, 0, 0]"] ;
314 -> 315 ;
316 [label="gini = 0.682\nsamples = 25\nvalue = [3, 9, 10, 0, 3, 0, 0]"] ;
315 -> 316 ;
317 [label="gini = 0.375\nsamples = 8\nvalue = [0, 2, 6, 0, 0, 0, 0]"] ;
315 -> 317 ;
318 [label="X[5] <= 2.5\ngini = 0.34\nsamples = 10\nvalue = [1, 0, 8, 0, 1, 0, 0]"] ;
314 -> 318 ;
319 [label="gini = 0.245\nsamples = 7\nvalue = [1, 0, 6, 0, 0, 0, 0]"] ;
318 -> 319 ;
320 [label="gini = 0.444\nsamples = 3\nvalue = [0, 0, 2, 0, 1, 0, 0]"] ;
318 -> 320 ;
321 [label="X[2] <= 20.5\ngini = 0.255\nsamples = 14\nvalue = [0, 1, 12, 0, 1, 0, 0]"] ;
313 -> 321 ;
322 [label="X[2] <= 19.5\ngini = 0.449\nsamples = 7\nvalue = [0, 1, 5, 0, 1, 0, 0]"] ;
321 -> 322 ;
323 [label="gini = 0.32\nsamples = 5\nvalue = [0, 0, 4, 0, 1, 0, 0]"] ;
322 -> 323 ;
324 [label="gini = 0.5\nsamples = 2\nvalue = [0, 1, 1, 0, 0, 0, 0]"] ;
322 -> 324 ;
325 [label="gini = 0.0\nsamples = 7\nvalue = [0, 0, 7, 0, 0, 0, 0]"] ;
321 -> 325 ;
326 [label="X[2] <= 21.5\ngini = 0.657\nsamples = 174\nvalue = [20, 63, 76, 0, 15, 0, 0]"] ;
180 -> 326 ;
327 [label="X[2] <= 20.5\ngini = 0.66\nsamples = 153\nvalue = [19, 60, 62, 0, 12, 0, 0]"] ;
326 -> 327 ;
328 [label="X[2] <= 3.5\ngini = 0.652\nsamples = 142\nvalue = [16, 54, 61, 0, 11, 0, 0]"] ;
327 -> 328 ;
329 [label="X[7] <= 0.152\ngini = 0.727\nsamples = 28\nvalue = [7, 10, 7, 0, 4, 0, 0]"] ;
328 -> 329 ;
330 [label="X[1] <= 2.5\ngini = 0.5\nsamples = 8\nvalue = [4, 4, 0, 0, 0, 0, 0]"] ;
329 -> 330 ;
331 [label="X[0] <= 0.5\ngini = 0.444\nsamples = 6\nvalue = [2, 4, 0, 0, 0, 0, 0]"] ;
330 -> 331 ;
332 [label="gini = 0.0\nsamples = 1\nvalue = [1, 0, 0, 0, 0, 0, 0]"] ;
331 -> 332 ;
333 [label="X[0] <= 5.5\ngini = 0.32\nsamples = 5\nvalue = [1, 4, 0, 0, 0, 0, 0]"] ;
331 -> 333 ;
334 [label="gini = 0.0\nsamples = 2\nvalue = [0, 2, 0, 0, 0, 0, 0]"] ;
333 -> 334 ;
335 [label="gini = 0.444\nsamples = 3\nvalue = [1, 2, 0, 0, 0, 0, 0]"] ;
333 -> 335 ;
336 [label="gini = 0.0\nsamples = 2\nvalue = [2, 0, 0, 0, 0, 0, 0]"] ;
330 -> 336 ;
337 [label="X[1] <= 1.5\ngini = 0.725\nsamples = 20\nvalue = [3, 6, 7, 0, 4, 0, 0]"] ;
329 -> 337 ;
338 [label="X[2] <= 1.5\ngini = 0.628\nsamples = 11\nvalue = [2, 2, 6, 0, 1, 0, 0]"] ;
337 -> 338 ;
339 [label="X[7] <= 0.181\ngini = 0.494\nsamples = 9\nvalue = [2, 1, 6, 0, 0, 0, 0]"] ;
338 -> 339 ;
340 [label="gini = 0.278\nsamples = 6\nvalue = [1, 0, 5, 0, 0, 0, 0]"] ;
339 -> 340 ;
341 [label="gini = 0.667\nsamples = 3\nvalue = [1, 1, 1, 0, 0, 0, 0]"] ;
339 -> 341 ;
342 [label="X[0] <= 5.0\ngini = 0.5\nsamples = 2\nvalue = [0, 1, 0, 0, 1, 0, 0]"] ;
338 -> 342 ;
343 [label="gini = 0.0\nsamples = 1\nvalue = [0, 1, 0, 0, 0, 0, 0]"] ;
342 -> 343 ;
344 [label="gini = 0.0\nsamples = 1\nvalue = [0, 0, 0, 0, 1, 0, 0]"] ;
342 -> 344 ;
345 [label="X[0] <= 0.5\ngini = 0.667\nsamples = 9\nvalue = [1, 4, 1, 0, 3, 0, 0]"] ;
337 -> 345 ;
346 [label="gini = 0.0\nsamples = 1\nvalue = [0, 0, 0, 0, 1, 0, 0]"] ;
345 -> 346 ;
347 [label="X[2] <= 0.5\ngini = 0.656\nsamples = 8\nvalue = [1, 4, 1, 0, 2, 0, 0]"] ;
345 -> 347 ;
348 [label="gini = 0.625\nsamples = 4\nvalue = [0, 1, 1, 0, 2, 0, 0]"] ;
347 -> 348 ;
349 [label="gini = 0.375\nsamples = 4\nvalue = [1, 3, 0, 0, 0, 0, 0]"] ;
347 -> 349 ;
350 [label="X[1] <= 0.5\ngini = 0.617\nsamples = 114\nvalue = [9, 44, 54, 0, 7, 0, 0]"] ;
328 -> 350 ;
351 [label="X[0] <= 4.5\ngini = 0.632\nsamples = 43\nvalue = [2, 12, 22, 0, 7, 0, 0]"] ;
350 -> 351 ;
352 [label="X[2] <= 17.5\ngini = 0.608\nsamples = 31\nvalue = [2, 12, 15, 0, 2, 0, 0]"] ;
351 -> 352 ;
353 [label="X[7] <= 0.169\ngini = 0.615\nsamples = 20\nvalue = [2, 5, 11, 0, 2, 0, 0]"] ;
352 -> 353 ;
354 [label="gini = 0.628\nsamples = 11\nvalue = [2, 4, 5, 0, 0, 0, 0]"] ;
353 -> 354 ;
355 [label="gini = 0.494\nsamples = 9\nvalue = [0, 1, 6, 0, 2, 0, 0]"] ;
353 -> 355 ;
356 [label="X[0] <= 0.5\ngini = 0.463\nsamples = 11\nvalue = [0, 7, 4, 0, 0, 0, 0]"] ;
352 -> 356 ;
357 [label="gini = 0.0\nsamples = 2\nvalue = [0, 2, 0, 0, 0, 0, 0]"] ;
356 -> 357 ;
358 [label="gini = 0.494\nsamples = 9\nvalue = [0, 5, 4, 0, 0, 0, 0]"] ;
356 -> 358 ;
359 [label="X[2] <= 13.5\ngini = 0.486\nsamples = 12\nvalue = [0, 0, 7, 0, 5, 0, 0]"] ;
351 -> 359 ;
360 [label="gini = 0.0\nsamples = 3\nvalue = [0, 0, 3, 0, 0, 0, 0]"] ;
359 -> 360 ;
361 [label="X[7] <= 0.153\ngini = 0.494\nsamples = 9\nvalue = [0, 0, 4, 0, 5, 0, 0]"] ;
359 -> 361 ;
362 [label="gini = 0.48\nsamples = 5\nvalue = [0, 0, 3, 0, 2, 0, 0]"] ;
361 -> 362 ;
363 [label="gini = 0.375\nsamples = 4\nvalue = [0, 0, 1, 0, 3, 0, 0]"] ;
361 -> 363 ;
364 [label="X[0] <= 5.5\ngini = 0.584\nsamples = 71\nvalue = [7, 32, 32, 0, 0, 0, 0]"] ;
350 -> 364 ;
365 [label="X[0] <= 4.5\ngini = 0.582\nsamples = 54\nvalue = [6, 20, 28, 0, 0, 0, 0]"] ;
364 -> 365 ;
366 [label="X[1] <= 2.5\ngini = 0.608\nsamples = 44\nvalue = [6, 19, 19, 0, 0, 0, 0]"] ;
365 -> 366 ;
367 [label="gini = 0.528\nsamples = 28\nvalue = [1, 15, 12, 0, 0, 0, 0]"] ;
366 -> 367 ;
368 [label="gini = 0.648\nsamples = 16\nvalue = [5, 4, 7, 0, 0, 0, 0]"] ;
366 -> 368 ;
369 [label="X[7] <= 0.183\ngini = 0.18\nsamples = 10\nvalue = [0, 1, 9, 0, 0, 0, 0]"] ;
365 -> 369 ;
370 [label="gini = 0.0\nsamples = 8\nvalue = [0, 0, 8, 0, 0, 0, 0]"] ;
369 -> 370 ;
371 [label="gini = 0.5\nsamples = 2\nvalue = [0, 1, 1, 0, 0, 0, 0]"] ;
369 -> 371 ;
372 [label="X[2] <= 9.5\ngini = 0.443\nsamples = 17\nvalue = [1, 12, 4, 0, 0, 0, 0]"] ;
364 -> 372 ;
373 [label="gini = 0.0\nsamples = 1\nvalue = [0, 0, 1, 0, 0, 0, 0]"] ;
372 -> 373 ;
374 [label="X[7] <= 0.203\ngini = 0.398\nsamples = 16\nvalue = [1, 12, 3, 0, 0, 0, 0]"] ;
372 -> 374 ;
375 [label="gini = 0.338\nsamples = 15\nvalue = [1, 12, 2, 0, 0, 0, 0]"] ;
374 -> 375 ;
376 [label="gini = 0.0\nsamples = 1\nvalue = [0, 0, 1, 0, 0, 0, 0]"] ;
374 -> 376 ;
377 [label="X[0] <= 3.5\ngini = 0.612\nsamples = 11\nvalue = [3, 6, 1, 0, 1, 0, 0]"] ;
327 -> 377 ;
378 [label="X[7] <= 0.157\ngini = 0.56\nsamples = 5\nvalue = [0, 3, 1, 0, 1, 0, 0]"] ;
377 -> 378 ;
379 [label="gini = 0.0\nsamples = 3\nvalue = [0, 3, 0, 0, 0, 0, 0]"] ;
378 -> 379 ;
380 [label="X[7] <= 0.17\ngini = 0.5\nsamples = 2\nvalue = [0, 0, 1, 0, 1, 0, 0]"] ;
378 -> 380 ;
381 [label="gini = 0.0\nsamples = 1\nvalue = [0, 0, 0, 0, 1, 0, 0]"] ;
380 -> 381 ;
382 [label="gini = 0.0\nsamples = 1\nvalue = [0, 0, 1, 0, 0, 0, 0]"] ;
380 -> 382 ;
383 [label="X[0] <= 5.5\ngini = 0.5\nsamples = 6\nvalue = [3, 3, 0, 0, 0, 0, 0]"] ;
377 -> 383 ;
384 [label="X[0] <= 4.5\ngini = 0.48\nsamples = 5\nvalue = [3, 2, 0, 0, 0, 0, 0]"] ;
383 -> 384 ;
385 [label="X[1] <= 1.5\ngini = 0.5\nsamples = 4\nvalue = [2, 2, 0, 0, 0, 0, 0]"] ;
384 -> 385 ;
386 [label="gini = 0.5\nsamples = 2\nvalue = [1, 1, 0, 0, 0, 0, 0]"] ;
385 -> 386 ;
387 [label="gini = 0.5\nsamples = 2\nvalue = [1, 1, 0, 0, 0, 0, 0]"] ;
385 -> 387 ;
388 [label="gini = 0.0\nsamples = 1\nvalue = [1, 0, 0, 0, 0, 0, 0]"] ;
384 -> 388 ;
389 [label="gini = 0.0\nsamples = 1\nvalue = [0, 1, 0, 0, 0, 0, 0]"] ;
383 -> 389 ;
390 [label="X[7] <= 0.17\ngini = 0.512\nsamples = 21\nvalue = [1, 3, 14, 0, 3, 0, 0]"] ;
326 -> 390 ;
391 [label="X[2] <= 22.5\ngini = 0.414\nsamples = 16\nvalue = [1, 2, 12, 0, 1, 0, 0]"] ;
390 -> 391 ;
392 [label="X[0] <= 4.5\ngini = 0.292\nsamples = 12\nvalue = [1, 0, 10, 0, 1, 0, 0]"] ;
391 -> 392 ;
393 [label="X[0] <= 2.0\ngini = 0.165\nsamples = 11\nvalue = [1, 0, 10, 0, 0, 0, 0]"] ;
392 -> 393 ;
394 [label="gini = 0.0\nsamples = 6\nvalue = [0, 0, 6, 0, 0, 0, 0]"] ;
393 -> 394 ;
395 [label="X[0] <= 3.5\ngini = 0.32\nsamples = 5\nvalue = [1, 0, 4, 0, 0, 0, 0]"] ;
393 -> 395 ;
396 [label="gini = 0.5\nsamples = 2\nvalue = [1, 0, 1, 0, 0, 0, 0]"] ;
395 -> 396 ;
397 [label="gini = 0.0\nsamples = 3\nvalue = [0, 0, 3, 0, 0, 0, 0]"] ;
395 -> 397 ;
398 [label="gini = 0.0\nsamples = 1\nvalue = [0, 0, 0, 0, 1, 0, 0]"] ;
392 -> 398 ;
399 [label="X[0] <= 3.5\ngini = 0.5\nsamples = 4\nvalue = [0, 2, 2, 0, 0, 0, 0]"] ;
391 -> 399 ;
400 [label="gini = 0.0\nsamples = 2\nvalue = [0, 2, 0, 0, 0, 0, 0]"] ;
399 -> 400 ;
401 [label="gini = 0.0\nsamples = 2\nvalue = [0, 0, 2, 0, 0, 0, 0]"] ;
399 -> 401 ;
402 [label="X[1] <= 2.5\ngini = 0.64\nsamples = 5\nvalue = [0, 1, 2, 0, 2, 0, 0]"] ;
390 -> 402 ;
403 [label="X[2] <= 22.5\ngini = 0.444\nsamples = 3\nvalue = [0, 0, 2, 0, 1, 0, 0]"] ;
402 -> 403 ;
404 [label="gini = 0.5\nsamples = 2\nvalue = [0, 0, 1, 0, 1, 0, 0]"] ;
403 -> 404 ;
405 [label="gini = 0.0\nsamples = 1\nvalue = [0, 0, 1, 0, 0, 0, 0]"] ;
403 -> 405 ;
406 [label="gini = 0.5\nsamples = 2\nvalue = [0, 1, 0, 0, 1, 0, 0]"] ;
402 -> 406 ;
407 [label="X[5] <= 6.5\ngini = 0.642\nsamples = 4692\nvalue = [615, 2458, 1133, 40, 410, 4, 32]"] ;
5 -> 407 ;
408 [label="X[5] <= 5.5\ngini = 0.584\nsamples = 3490\nvalue = [393, 2090, 689, 25, 271, 2, 20]"] ;
407 -> 408 ;
409 [label="X[7] <= 0.029\ngini = 0.672\nsamples = 898\nvalue = [178, 442, 172, 8, 89, 1, 8]"] ;
408 -> 409 ;
410 [label="X[0] <= 2.5\ngini = 0.66\nsamples = 26\nvalue = [4, 6, 13, 0, 3, 0, 0]"] ;
409 -> 410 ;
411 [label="X[2] <= 17.5\ngini = 0.675\nsamples = 13\nvalue = [2, 5, 5, 0, 1, 0, 0]"] ;
410 -> 411 ;
412 [label="X[2] <= 13.5\ngini = 0.66\nsamples = 10\nvalue = [2, 2, 5, 0, 1, 0, 0]"] ;
411 -> 412 ;
413 [label="X[2] <= 7.0\ngini = 0.72\nsamples = 5\nvalue = [1, 2, 1, 0, 1, 0, 0]"] ;
412 -> 413 ;
414 [label="X[2] <= 4.0\ngini = 0.667\nsamples = 3\nvalue = [1, 0, 1, 0, 1, 0, 0]"] ;
413 -> 414 ;
415 [label="gini = 0.5\nsamples = 2\nvalue = [1, 0, 1, 0, 0, 0, 0]"] ;
414 -> 415 ;
416 [label="gini = 0.0\nsamples = 1\nvalue = [0, 0, 0, 0, 1, 0, 0]"] ;
414 -> 416 ;
417 [label="gini = 0.0\nsamples = 2\nvalue = [0, 2, 0, 0, 0, 0, 0]"] ;
413 -> 417 ;
418 [label="X[7] <= 0.017\ngini = 0.32\nsamples = 5\nvalue = [1, 0, 4, 0, 0, 0, 0]"] ;
412 -> 418 ;
419 [label="gini = 0.5\nsamples = 2\nvalue = [1, 0, 1, 0, 0, 0, 0]"] ;
418 -> 419 ;
420 [label="gini = 0.0\nsamples = 3\nvalue = [0, 0, 3, 0, 0, 0, 0]"] ;
418 -> 420 ;
421 [label="gini = 0.0\nsamples = 3\nvalue = [0, 3, 0, 0, 0, 0, 0]"] ;
411 -> 421 ;
422 [label="X[0] <= 5.5\ngini = 0.568\nsamples = 13\nvalue = [2, 1, 8, 0, 2, 0, 0]"] ;
410 -> 422 ;
423 [label="X[7] <= 0.027\ngini = 0.245\nsamples = 7\nvalue = [0, 0, 6, 0, 1, 0, 0]"] ;
422 -> 423 ;
424 [label="gini = 0.0\nsamples = 6\nvalue = [0, 0, 6, 0, 0, 0, 0]"] ;
423 -> 424 ;
425 [label="gini = 0.0\nsamples = 1\nvalue = [0, 0, 0, 0, 1, 0, 0]"] ;
423 -> 425 ;
426 [label="X[1] <= 1.5\ngini = 0.722\nsamples = 6\nvalue = [2, 1, 2, 0, 1, 0, 0]"] ;
422 -> 426 ;
427 [label="X[7] <= 0.028\ngini = 0.5\nsamples = 4\nvalue = [2, 0, 2, 0, 0, 0, 0]"] ;
426 -> 427 ;
428 [label="X[2] <= 18.0\ngini = 0.444\nsamples = 3\nvalue = [2, 0, 1, 0, 0, 0, 0]"] ;
427 -> 428 ;
429 [label="gini = 0.0\nsamples = 1\nvalue = [1, 0, 0, 0, 0, 0, 0]"] ;
428 -> 429 ;
430 [label="gini = 0.5\nsamples = 2\nvalue = [1, 0, 1, 0, 0, 0, 0]"] ;
428 -> 430 ;
431 [label="gini = 0.0\nsamples = 1\nvalue = [0, 0, 1, 0, 0, 0, 0]"] ;
427 -> 431 ;
432 [label="X[2] <= 16.0\ngini = 0.5\nsamples = 2\nvalue = [0, 1, 0, 0, 1, 0, 0]"] ;
426 -> 432 ;
433 [label="gini = 0.0\nsamples = 1\nvalue = [0, 1, 0, 0, 0, 0, 0]"] ;
432 -> 433 ;
434 [label="gini = 0.0\nsamples = 1\nvalue = [0, 0, 0, 0, 1, 0, 0]"] ;
432 -> 434 ;
435 [label="X[2] <= 8.5\ngini = 0.667\nsamples = 872\nvalue = [174, 436, 159, 8, 86, 1, 8]"] ;
409 -> 435 ;
436 [label="X[7] <= 0.105\ngini = 0.71\nsamples = 115\nvalue = [21, 47, 33, 3, 9, 0, 2]"] ;
435 -> 436 ;
437 [label="X[2] <= 0.5\ngini = 0.66\nsamples = 80\nvalue = [14, 40, 19, 3, 3, 0, 1]"] ;
436 -> 437 ;
438 [label="X[1] <= 2.5\ngini = 0.436\nsamples = 15\nvalue = [2, 11, 0, 1, 0, 0, 1]"] ;
437 -> 438 ;
439 [label="X[1] <= 1.0\ngini = 0.198\nsamples = 9\nvalue = [0, 8, 0, 0, 0, 0, 1]"] ;
438 -> 439 ;
440 [label="X[0] <= 4.0\ngini = 0.5\nsamples = 2\nvalue = [0, 1, 0, 0, 0, 0, 1]"] ;
439 -> 440 ;
441 [label="gini = 0.0\nsamples = 1\nvalue = [0, 1, 0, 0, 0, 0, 0]"] ;
440 -> 441 ;
442 [label="gini = 0.0\nsamples = 1\nvalue = [0, 0, 0, 0, 0, 0, 1]"] ;
440 -> 442 ;
443 [label="gini = 0.0\nsamples = 7\nvalue = [0, 7, 0, 0, 0, 0, 0]"] ;
439 -> 443 ;
444 [label="X[7] <= 0.076\ngini = 0.611\nsamples = 6\nvalue = [2, 3, 0, 1, 0, 0, 0]"] ;
438 -> 444 ;
445 [label="X[7] <= 0.05\ngini = 0.444\nsamples = 3\nvalue = [0, 2, 0, 1, 0, 0, 0]"] ;
444 -> 445 ;
446 [label="gini = 0.5\nsamples = 2\nvalue = [0, 1, 0, 1, 0, 0, 0]"] ;
445 -> 446 ;
447 [label="gini = 0.0\nsamples = 1\nvalue = [0, 1, 0, 0, 0, 0, 0]"] ;
445 -> 447 ;
448 [label="X[7] <= 0.091\ngini = 0.444\nsamples = 3\nvalue = [2, 1, 0, 0, 0, 0, 0]"] ;
444 -> 448 ;
449 [label="gini = 0.5\nsamples = 2\nvalue = [1, 1, 0, 0, 0, 0, 0]"] ;
448 -> 449 ;
450 [label="gini = 0.0\nsamples = 1\nvalue = [1, 0, 0, 0, 0, 0, 0]"] ;
448 -> 450 ;
451 [label="X[7] <= 0.09\ngini = 0.678\nsamples = 65\nvalue = [12, 29, 19, 2, 3, 0, 0]"] ;
437 -> 451 ;
452 [label="X[7] <= 0.085\ngini = 0.674\nsamples = 51\nvalue = [11, 19, 19, 0, 2, 0, 0]"] ;
451 -> 452 ;
453 [label="X[0] <= 0.5\ngini = 0.678\nsamples = 48\nvalue = [11, 19, 16, 0, 2, 0, 0]"] ;
452 -> 453 ;
454 [label="gini = 0.449\nsamples = 7\nvalue = [1, 5, 0, 0, 1, 0, 0]"] ;
453 -> 454 ;
455 [label="gini = 0.671\nsamples = 41\nvalue = [10, 14, 16, 0, 1, 0, 0]"] ;
453 -> 455 ;
456 [label="gini = 0.0\nsamples = 3\nvalue = [0, 0, 3, 0, 0, 0, 0]"] ;
452 -> 456 ;
457 [label="X[7] <= 0.098\ngini = 0.459\nsamples = 14\nvalue = [1, 10, 0, 2, 1, 0, 0]"] ;
451 -> 457 ;
458 [label="X[2] <= 6.0\ngini = 0.5\nsamples = 4\nvalue = [0, 2, 0, 2, 0, 0, 0]"] ;
457 -> 458 ;
459 [label="gini = 0.5\nsamples = 2\nvalue = [0, 1, 0, 1, 0, 0, 0]"] ;
458 -> 459 ;
460 [label="gini = 0.5\nsamples = 2\nvalue = [0, 1, 0, 1, 0, 0, 0]"] ;
458 -> 460 ;
461 [label="X[7] <= 0.099\ngini = 0.34\nsamples = 10\nvalue = [1, 8, 0, 0, 1, 0, 0]"] ;
457 -> 461 ;
462 [label="gini = 0.0\nsamples = 4\nvalue = [0, 4, 0, 0, 0, 0, 0]"] ;
461 -> 462 ;
463 [label="gini = 0.5\nsamples = 6\nvalue = [1, 4, 0, 0, 1, 0, 0]"] ;
461 -> 463 ;
464 [label="X[7] <= 0.142\ngini = 0.73\nsamples = 35\nvalue = [7, 7, 14, 0, 6, 0, 1]"] ;
436 -> 464 ;
465 [label="X[2] <= 3.0\ngini = 0.623\nsamples = 18\nvalue = [1, 2, 10, 0, 4, 0, 1]"] ;
464 -> 465 ;
466 [label="X[1] <= 1.5\ngini = 0.75\nsamples = 8\nvalue = [1, 1, 2, 0, 3, 0, 1]"] ;
465 -> 466 ;
467 [label="X[7] <= 0.127\ngini = 0.375\nsamples = 4\nvalue = [0, 0, 0, 0, 3, 0, 1]"] ;
466 -> 467 ;
468 [label="gini = 0.0\nsamples = 2\nvalue = [0, 0, 0, 0, 2, 0, 0]"] ;
467 -> 468 ;
469 [label="gini = 0.5\nsamples = 2\nvalue = [0, 0, 0, 0, 1, 0, 1]"] ;
467 -> 469 ;
470 [label="X[0] <= 1.5\ngini = 0.625\nsamples = 4\nvalue = [1, 1, 2, 0, 0, 0, 0]"] ;
466 -> 470 ;
471 [label="gini = 0.0\nsamples = 1\nvalue = [0, 1, 0, 0, 0, 0, 0]"] ;
470 -> 471 ;
472 [label="gini = 0.444\nsamples = 3\nvalue = [1, 0, 2, 0, 0, 0, 0]"] ;
470 -> 472 ;
473 [label="X[7] <= 0.112\ngini = 0.34\nsamples = 10\nvalue = [0, 1, 8, 0, 1, 0, 0]"] ;
465 -> 473 ;
474 [label="X[7] <= 0.108\ngini = 0.5\nsamples = 2\nvalue = [0, 0, 1, 0, 1, 0, 0]"] ;
473 -> 474 ;
475 [label="gini = 0.0\nsamples = 1\nvalue = [0, 0, 1, 0, 0, 0, 0]"] ;
474 -> 475 ;
476 [label="gini = 0.0\nsamples = 1\nvalue = [0, 0, 0, 0, 1, 0, 0]"] ;
474 -> 476 ;
477 [label="X[0] <= 2.5\ngini = 0.219\nsamples = 8\nvalue = [0, 1, 7, 0, 0, 0, 0]"] ;
473 -> 477 ;
478 [label="gini = 0.444\nsamples = 3\nvalue = [0, 1, 2, 0, 0, 0, 0]"] ;
477 -> 478 ;
479 [label="gini = 0.0\nsamples = 5\nvalue = [0, 0, 5, 0, 0, 0, 0]"] ;
477 -> 479 ;
480 [label="X[7] <= 0.193\ngini = 0.72\nsamples = 17\nvalue = [6, 5, 4, 0, 2, 0, 0]"] ;
464 -> 480 ;
481 [label="X[0] <= 1.5\ngini = 0.653\nsamples = 14\nvalue = [6, 4, 4, 0, 0, 0, 0]"] ;
480 -> 481 ;
482 [label="gini = 0.0\nsamples = 2\nvalue = [0, 2, 0, 0, 0, 0, 0]"] ;
481 -> 482 ;
483 [label="X[0] <= 2.5\ngini = 0.611\nsamples = 12\nvalue = [6, 2, 4, 0, 0, 0, 0]"] ;
481 -> 483 ;
484 [label="gini = 0.0\nsamples = 1\nvalue = [0, 0, 1, 0, 0, 0, 0]"] ;
483 -> 484 ;
485 [label="gini = 0.595\nsamples = 11\nvalue = [6, 2, 3, 0, 0, 0, 0]"] ;
483 -> 485 ;
486 [label="X[7] <= 0.21\ngini = 0.444\nsamples = 3\nvalue = [0, 1, 0, 0, 2, 0, 0]"] ;
480 -> 486 ;
487 [label="gini = 0.0\nsamples = 2\nvalue = [0, 0, 0, 0, 2, 0, 0]"] ;
486 -> 487 ;
488 [label="gini = 0.0\nsamples = 1\nvalue = [0, 1, 0, 0, 0, 0, 0]"] ;
486 -> 488 ;
489 [label="X[0] <= 3.5\ngini = 0.657\nsamples = 757\nvalue = [153, 389, 126, 5, 77, 1, 6]"] ;
435 -> 489 ;
490 [label="X[7] <= 0.053\ngini = 0.678\nsamples = 376\nvalue = [77, 179, 79, 2, 35, 0, 4]"] ;
489 -> 490 ;
491 [label="X[7] <= 0.05\ngini = 0.693\nsamples = 61\nvalue = [9, 25, 20, 0, 6, 0, 1]"] ;
490 -> 491 ;
492 [label="X[2] <= 15.5\ngini = 0.666\nsamples = 51\nvalue = [7, 25, 13, 0, 5, 0, 1]"] ;
491 -> 492 ;
493 [label="X[7] <= 0.048\ngini = 0.753\nsamples = 18\nvalue = [3, 6, 3, 0, 5, 0, 1]"] ;
492 -> 493 ;
494 [label="gini = 0.684\nsamples = 15\nvalue = [1, 6, 3, 0, 5, 0, 0]"] ;
493 -> 494 ;
495 [label="gini = 0.444\nsamples = 3\nvalue = [2, 0, 0, 0, 0, 0, 1]"] ;
493 -> 495 ;
496 [label="X[7] <= 0.033\ngini = 0.562\nsamples = 33\nvalue = [4, 19, 10, 0, 0, 0, 0]"] ;
492 -> 496 ;
497 [label="gini = 0.444\nsamples = 9\nvalue = [3, 6, 0, 0, 0, 0, 0]"] ;
496 -> 497 ;
498 [label="gini = 0.531\nsamples = 24\nvalue = [1, 13, 10, 0, 0, 0, 0]"] ;
496 -> 498 ;
499 [label="X[2] <= 20.5\ngini = 0.46\nsamples = 10\nvalue = [2, 0, 7, 0, 1, 0, 0]"] ;
491 -> 499 ;
500 [label="X[7] <= 0.053\ngini = 0.278\nsamples = 6\nvalue = [1, 0, 5, 0, 0, 0, 0]"] ;
499 -> 500 ;
501 [label="gini = 0.0\nsamples = 5\nvalue = [0, 0, 5, 0, 0, 0, 0]"] ;
500 -> 501 ;
502 [label="gini = 0.0\nsamples = 1\nvalue = [1, 0, 0, 0, 0, 0, 0]"] ;
500 -> 502 ;
503 [label="X[2] <= 21.5\ngini = 0.625\nsamples = 4\nvalue = [1, 0, 2, 0, 1, 0, 0]"] ;
499 -> 503 ;
504 [label="gini = 0.0\nsamples = 1\nvalue = [0, 0, 0, 0, 1, 0, 0]"] ;
503 -> 504 ;
505 [label="gini = 0.444\nsamples = 3\nvalue = [1, 0, 2, 0, 0, 0, 0]"] ;
503 -> 505 ;
506 [label="X[7] <= 0.066\ngini = 0.671\nsamples = 315\nvalue = [68, 154, 59, 2, 29, 0, 3]"] ;
490 -> 506 ;
507 [label="X[7] <= 0.054\ngini = 0.46\nsamples = 44\nvalue = [6, 31, 7, 0, 0, 0, 0]"] ;
506 -> 507 ;
508 [label="X[0] <= 1.5\ngini = 0.48\nsamples = 5\nvalue = [3, 2, 0, 0, 0, 0, 0]"] ;
507 -> 508 ;
509 [label="gini = 0.0\nsamples = 3\nvalue = [3, 0, 0, 0, 0, 0, 0]"] ;
508 -> 509 ;
510 [label="gini = 0.0\nsamples = 2\nvalue = [0, 2, 0, 0, 0, 0, 0]"] ;
508 -> 510 ;
511 [label="X[2] <= 20.0\ngini = 0.409\nsamples = 39\nvalue = [3, 29, 7, 0, 0, 0, 0]"] ;
507 -> 511 ;
512 [label="gini = 0.331\nsamples = 30\nvalue = [1, 24, 5, 0, 0, 0, 0]"] ;
511 -> 512 ;
513 [label="gini = 0.593\nsamples = 9\nvalue = [2, 5, 2, 0, 0, 0, 0]"] ;
511 -> 513 ;
514 [label="X[1] <= 1.5\ngini = 0.693\nsamples = 271\nvalue = [62, 123, 52, 2, 29, 0, 3]"] ;
506 -> 514 ;
515 [label="X[2] <= 14.5\ngini = 0.693\nsamples = 129\nvalue = [39, 55, 20, 1, 13, 0, 1]"] ;
514 -> 515 ;
516 [label="gini = 0.674\nsamples = 46\nvalue = [9, 22, 10, 0, 5, 0, 0]"] ;
515 -> 516 ;
517 [label="gini = 0.687\nsamples = 83\nvalue = [30, 33, 10, 1, 8, 0, 1]"] ;
515 -> 517 ;
518 [label="X[7] <= 0.083\ngini = 0.681\nsamples = 142\nvalue = [23, 68, 32, 1, 16, 0, 2]"] ;
514 -> 518 ;
519 [label="gini = 0.705\nsamples = 27\nvalue = [3, 10, 5, 0, 9, 0, 0]"] ;
518 -> 519 ;
520 [label="gini = 0.656\nsamples = 115\nvalue = [20, 58, 27, 1, 7, 0, 2]"] ;
518 -> 520 ;
521 [label="X[1] <= 1.5\ngini = 0.629\nsamples = 381\nvalue = [76, 210, 47, 3, 42, 1, 2]"] ;
489 -> 521 ;
522 [label="X[7] <= 0.143\ngini = 0.595\nsamples = 209\nvalue = [40, 123, 17, 0, 26, 1, 2]"] ;
521 -> 522 ;
523 [label="X[7] <= 0.109\ngini = 0.629\nsamples = 172\nvalue = [36, 94, 15, 0, 25, 1, 1]"] ;
522 -> 523 ;
524 [label="X[0] <= 4.5\ngini = 0.588\nsamples = 143\nvalue = [30, 84, 8, 0, 20, 1, 0]"] ;
523 -> 524 ;
525 [label="gini = 0.617\nsamples = 51\nvalue = [17, 26, 4, 0, 4, 0, 0]"] ;
524 -> 525 ;
526 [label="gini = 0.55\nsamples = 92\nvalue = [13, 58, 4, 0, 16, 1, 0]"] ;
524 -> 526 ;
527 [label="X[2] <= 15.5\ngini = 0.749\nsamples = 29\nvalue = [6, 10, 7, 0, 5, 0, 1]"] ;
523 -> 527 ;
528 [label="gini = 0.736\nsamples = 12\nvalue = [2, 2, 5, 0, 2, 0, 1]"] ;
527 -> 528 ;
529 [label="gini = 0.678\nsamples = 17\nvalue = [4, 8, 2, 0, 3, 0, 0]"] ;
527 -> 529 ;
530 [label="X[2] <= 22.5\ngini = 0.37\nsamples = 37\nvalue = [4, 29, 2, 0, 1, 0, 1]"] ;
522 -> 530 ;
531 [label="X[7] <= 0.193\ngini = 0.335\nsamples = 36\nvalue = [4, 29, 2, 0, 1, 0, 0]"] ;
530 -> 531 ;
532 [label="gini = 0.422\nsamples = 27\nvalue = [4, 20, 2, 0, 1, 0, 0]"] ;
531 -> 532 ;
533 [label="gini = 0.0\nsamples = 9\nvalue = [0, 9, 0, 0, 0, 0, 0]"] ;
531 -> 533 ;
534 [label="gini = 0.0\nsamples = 1\nvalue = [0, 0, 0, 0, 0, 0, 1]"] ;
530 -> 534 ;
535 [label="X[7] <= 0.13\ngini = 0.661\nsamples = 172\nvalue = [36, 87, 30, 3, 16, 0, 0]"] ;
521 -> 535 ;
536 [label="X[7] <= 0.105\ngini = 0.644\nsamples = 136\nvalue = [21, 73, 24, 3, 15, 0, 0]"] ;
535 -> 536 ;
537 [label="X[7] <= 0.097\ngini = 0.626\nsamples = 122\nvalue = [21, 68, 18, 2, 13, 0, 0]"] ;
536 -> 537 ;
538 [label="gini = 0.683\nsamples = 89\nvalue = [15, 43, 17, 2, 12, 0, 0]"] ;
537 -> 538 ;
539 [label="gini = 0.391\nsamples = 33\nvalue = [6, 25, 1, 0, 1, 0, 0]"] ;
537 -> 539 ;
540 [label="X[2] <= 12.5\ngini = 0.663\nsamples = 14\nvalue = [0, 5, 6, 1, 2, 0, 0]"] ;
536 -> 540 ;
541 [label="gini = 0.375\nsamples = 4\nvalue = [0, 3, 0, 0, 1, 0, 0]"] ;
540 -> 541 ;
542 [label="gini = 0.58\nsamples = 10\nvalue = [0, 2, 6, 1, 1, 0, 0]"] ;
540 -> 542 ;
543 [label="X[1] <= 2.5\ngini = 0.647\nsamples = 36\nvalue = [15, 14, 6, 0, 1, 0, 0]"] ;
535 -> 543 ;
544 [label="X[7] <= 0.143\ngini = 0.658\nsamples = 15\nvalue = [6, 2, 6, 0, 1, 0, 0]"] ;
543 -> 544 ;
545 [label="gini = 0.32\nsamples = 5\nvalue = [4, 0, 1, 0, 0, 0, 0]"] ;
544 -> 545 ;
546 [label="gini = 0.66\nsamples = 10\nvalue = [2, 2, 5, 0, 1, 0, 0]"] ;
544 -> 546 ;
547 [label="X[7] <= 0.143\ngini = 0.49\nsamples = 21\nvalue = [9, 12, 0, 0, 0, 0, 0]"] ;
543 -> 547 ;
548 [label="gini = 0.408\nsamples = 7\nvalue = [5, 2, 0, 0, 0, 0, 0]"] ;
547 -> 548 ;
549 [label="gini = 0.408\nsamples = 14\nvalue = [4, 10, 0, 0, 0, 0, 0]"] ;
547 -> 549 ;
550 [label="X[7] <= 0.089\ngini = 0.544\nsamples = 2592\nvalue = [215, 1648, 517, 17, 182, 1, 12]"] ;
408 -> 550 ;
551 [label="X[7] <= 0.086\ngini = 0.616\nsamples = 782\nvalue = [66, 431, 198, 7, 75, 1, 4]"] ;
550 -> 551 ;
552 [label="X[7] <= 0.069\ngini = 0.592\nsamples = 678\nvalue = [54, 396, 155, 6, 63, 1, 3]"] ;
551 -> 552 ;
553 [label="X[7] <= 0.06\ngini = 0.639\nsamples = 437\nvalue = [38, 226, 120, 6, 45, 1, 1]"] ;
552 -> 553 ;
554 [label="X[7] <= 0.047\ngini = 0.582\nsamples = 316\nvalue = [20, 185, 79, 2, 29, 1, 0]"] ;
553 -> 554 ;
555 [label="X[7] <= 0.047\ngini = 0.661\nsamples = 126\nvalue = [12, 56, 44, 1, 13, 0, 0]"] ;
554 -> 555 ;
556 [label="X[7] <= 0.04\ngini = 0.657\nsamples = 118\nvalue = [12, 55, 38, 0, 13, 0, 0]"] ;
555 -> 556 ;
557 [label="gini = 0.652\nsamples = 51\nvalue = [4, 18, 23, 0, 6, 0, 0]"] ;
556 -> 557 ;
558 [label="gini = 0.62\nsamples = 67\nvalue = [8, 37, 15, 0, 7, 0, 0]"] ;
556 -> 558 ;
559 [label="X[1] <= 2.5\ngini = 0.406\nsamples = 8\nvalue = [0, 1, 6, 1, 0, 0, 0]"] ;
555 -> 559 ;
560 [label="gini = 0.245\nsamples = 7\nvalue = [0, 0, 6, 1, 0, 0, 0]"] ;
559 -> 560 ;
561 [label="gini = 0.0\nsamples = 1\nvalue = [0, 1, 0, 0, 0, 0, 0]"] ;
559 -> 561 ;
562 [label="X[0] <= 5.5\ngini = 0.496\nsamples = 190\nvalue = [8, 129, 35, 1, 16, 1, 0]"] ;
554 -> 562 ;
563 [label="X[2] <= 20.5\ngini = 0.448\nsamples = 148\nvalue = [6, 107, 22, 1, 11, 1, 0]"] ;
562 -> 563 ;
564 [label="gini = 0.513\nsamples = 111\nvalue = [5, 74, 20, 1, 10, 1, 0]"] ;
563 -> 564 ;
565 [label="gini = 0.2\nsamples = 37\nvalue = [1, 33, 2, 0, 1, 0, 0]"] ;
563 -> 565 ;
566 [label="X[1] <= 2.5\ngini = 0.613\nsamples = 42\nvalue = [2, 22, 13, 0, 5, 0, 0]"] ;
562 -> 566 ;
567 [label="gini = 0.539\nsamples = 32\nvalue = [2, 20, 8, 0, 2, 0, 0]"] ;
566 -> 567 ;
568 [label="gini = 0.62\nsamples = 10\nvalue = [0, 2, 5, 0, 3, 0, 0]"] ;
566 -> 568 ;
569 [label="X[7] <= 0.066\ngini = 0.73\nsamples = 121\nvalue = [18, 41, 41, 4, 16, 0, 1]"] ;
553 -> 569 ;
570 [label="X[7] <= 0.061\ngini = 0.702\nsamples = 89\nvalue = [14, 26, 37, 1, 11, 0, 0]"] ;
569 -> 570 ;
571 [label="X[0] <= 0.5\ngini = 0.556\nsamples = 26\nvalue = [0, 10, 14, 0, 2, 0, 0]"] ;
570 -> 571 ;
572 [label="gini = 0.0\nsamples = 3\nvalue = [0, 0, 3, 0, 0, 0, 0]"] ;
571 -> 572 ;
573 [label="gini = 0.575\nsamples = 23\nvalue = [0, 10, 11, 0, 2, 0, 0]"] ;
571 -> 573 ;
574 [label="X[2] <= 1.5\ngini = 0.732\nsamples = 63\nvalue = [14, 16, 23, 1, 9, 0, 0]"] ;
570 -> 574 ;
575 [label="gini = 0.5\nsamples = 6\nvalue = [1, 4, 1, 0, 0, 0, 0]"] ;
574 -> 575 ;
576 [label="gini = 0.729\nsamples = 57\nvalue = [13, 12, 22, 1, 9, 0, 0]"] ;
574 -> 576 ;
577 [label="X[2] <= 19.5\ngini = 0.715\nsamples = 32\nvalue = [4, 15, 4, 3, 5, 0, 1]"] ;
569 -> 577 ;
578 [label="X[0] <= 5.5\ngini = 0.767\nsamples = 24\nvalue = [4, 9, 4, 2, 4, 0, 1]"] ;
577 -> 578 ;
579 [label="gini = 0.742\nsamples = 19\nvalue = [2, 8, 4, 2, 2, 0, 1]"] ;
578 -> 579 ;
580 [label="gini = 0.64\nsamples = 5\nvalue = [2, 1, 0, 0, 2, 0, 0]"] ;
578 -> 580 ;
581 [label="X[0] <= 2.5\ngini = 0.406\nsamples = 8\nvalue = [0, 6, 0, 1, 1, 0, 0]"] ;
577 -> 581 ;
582 [label="gini = 0.0\nsamples = 1\nvalue = [0, 0, 0, 0, 1, 0, 0]"] ;
581 -> 582 ;
583 [label="gini = 0.245\nsamples = 7\nvalue = [0, 6, 0, 1, 0, 0, 0]"] ;
581 -> 583 ;
584 [label="X[7] <= 0.083\ngini = 0.471\nsamples = 241\nvalue = [16, 170, 35, 0, 18, 0, 2]"] ;
552 -> 584 ;
585 [label="X[0] <= 3.5\ngini = 0.423\nsamples = 200\nvalue = [10, 149, 22, 0, 17, 0, 2]"] ;
584 -> 585 ;
586 [label="X[2] <= 18.5\ngini = 0.531\nsamples = 104\nvalue = [7, 68, 15, 0, 13, 0, 1]"] ;
585 -> 586 ;
587 [label="X[7] <= 0.07\ngini = 0.585\nsamples = 65\nvalue = [5, 39, 8, 0, 12, 0, 1]"] ;
586 -> 587 ;
588 [label="gini = 0.473\nsamples = 37\nvalue = [2, 26, 5, 0, 4, 0, 0]"] ;
587 -> 588 ;
589 [label="gini = 0.679\nsamples = 28\nvalue = [3, 13, 3, 0, 8, 0, 1]"] ;
587 -> 589 ;
590 [label="X[0] <= 1.5\ngini = 0.412\nsamples = 39\nvalue = [2, 29, 7, 0, 1, 0, 0]"] ;
586 -> 590 ;
591 [label="gini = 0.302\nsamples = 23\nvalue = [2, 19, 2, 0, 0, 0, 0]"] ;
590 -> 591 ;
592 [label="gini = 0.508\nsamples = 16\nvalue = [0, 10, 5, 0, 1, 0, 0]"] ;
590 -> 592 ;
593 [label="X[1] <= 1.5\ngini = 0.28\nsamples = 96\nvalue = [3, 81, 7, 0, 4, 0, 1]"] ;
585 -> 593 ;
594 [label="X[2] <= 20.5\ngini = 0.195\nsamples = 57\nvalue = [2, 51, 1, 0, 3, 0, 0]"] ;
593 -> 594 ;
595 [label="gini = 0.31\nsamples = 34\nvalue = [2, 28, 1, 0, 3, 0, 0]"] ;
594 -> 595 ;
596 [label="gini = 0.0\nsamples = 23\nvalue = [0, 23, 0, 0, 0, 0, 0]"] ;
594 -> 596 ;
597 [label="X[7] <= 0.072\ngini = 0.383\nsamples = 39\nvalue = [1, 30, 6, 0, 1, 0, 1]"] ;
593 -> 597 ;
598 [label="gini = 0.539\nsamples = 16\nvalue = [1, 10, 4, 0, 0, 0, 1]"] ;
597 -> 598 ;
599 [label="gini = 0.234\nsamples = 23\nvalue = [0, 20, 2, 0, 1, 0, 0]"] ;
597 -> 599 ;
600 [label="X[7] <= 0.084\ngini = 0.615\nsamples = 41\nvalue = [6, 21, 13, 0, 1, 0, 0]"] ;
584 -> 600 ;
601 [label="gini = 0.0\nsamples = 2\nvalue = [0, 0, 2, 0, 0, 0, 0]"] ;
600 -> 601 ;
602 [label="X[7] <= 0.085\ngini = 0.606\nsamples = 39\nvalue = [6, 21, 11, 0, 1, 0, 0]"] ;
600 -> 602 ;
603 [label="X[0] <= 3.0\ngini = 0.625\nsamples = 4\nvalue = [2, 1, 0, 0, 1, 0, 0]"] ;
602 -> 603 ;
604 [label="gini = 0.0\nsamples = 2\nvalue = [2, 0, 0, 0, 0, 0, 0]"] ;
603 -> 604 ;
605 [label="gini = 0.5\nsamples = 2\nvalue = [0, 1, 0, 0, 1, 0, 0]"] ;
603 -> 605 ;
606 [label="X[2] <= 22.5\ngini = 0.562\nsamples = 35\nvalue = [4, 20, 11, 0, 0, 0, 0]"] ;
602 -> 606 ;
607 [label="gini = 0.591\nsamples = 31\nvalue = [4, 16, 11, 0, 0, 0, 0]"] ;
606 -> 607 ;
608 [label="gini = 0.0\nsamples = 4\nvalue = [0, 4, 0, 0, 0, 0, 0]"] ;
606 -> 608 ;
609 [label="X[7] <= 0.089\ngini = 0.689\nsamples = 104\nvalue = [12, 35, 43, 1, 12, 0, 1]"] ;
551 -> 609 ;
610 [label="X[2] <= 8.5\ngini = 0.669\nsamples = 95\nvalue = [7, 32, 42, 1, 12, 0, 1]"] ;
609 -> 610 ;
611 [label="X[0] <= 0.5\ngini = 0.651\nsamples = 30\nvalue = [4, 15, 8, 0, 3, 0, 0]"] ;
610 -> 611 ;
612 [label="gini = 0.0\nsamples = 3\nvalue = [0, 3, 0, 0, 0, 0, 0]"] ;
611 -> 612 ;
613 [label="X[1] <= 1.5\ngini = 0.68\nsamples = 27\nvalue = [4, 12, 8, 0, 3, 0, 0]"] ;
611 -> 613 ;
614 [label="X[2] <= 5.0\ngini = 0.678\nsamples = 11\nvalue = [2, 3, 5, 0, 1, 0, 0]"] ;
613 -> 614 ;
615 [label="gini = 0.0\nsamples = 4\nvalue = [0, 0, 4, 0, 0, 0, 0]"] ;
614 -> 615 ;
616 [label="gini = 0.694\nsamples = 7\nvalue = [2, 3, 1, 0, 1, 0, 0]"] ;
614 -> 616 ;
617 [label="X[2] <= 7.5\ngini = 0.617\nsamples = 16\nvalue = [2, 9, 3, 0, 2, 0, 0]"] ;
613 -> 617 ;
618 [label="gini = 0.587\nsamples = 15\nvalue = [2, 9, 2, 0, 2, 0, 0]"] ;
617 -> 618 ;
619 [label="gini = 0.0\nsamples = 1\nvalue = [0, 0, 1, 0, 0, 0, 0]"] ;
617 -> 619 ;
620 [label="X[2] <= 15.5\ngini = 0.636\nsamples = 65\nvalue = [3, 17, 34, 1, 9, 0, 1]"] ;
610 -> 620 ;
621 [label="X[2] <= 13.5\ngini = 0.469\nsamples = 23\nvalue = [0, 4, 16, 0, 3, 0, 0]"] ;
620 -> 621 ;
622 [label="X[0] <= 2.5\ngini = 0.604\nsamples = 13\nvalue = [0, 3, 7, 0, 3, 0, 0]"] ;
621 -> 622 ;
623 [label="gini = 0.56\nsamples = 5\nvalue = [0, 3, 1, 0, 1, 0, 0]"] ;
622 -> 623 ;
624 [label="gini = 0.375\nsamples = 8\nvalue = [0, 0, 6, 0, 2, 0, 0]"] ;
622 -> 624 ;
625 [label="X[0] <= 5.0\ngini = 0.18\nsamples = 10\nvalue = [0, 1, 9, 0, 0, 0, 0]"] ;
621 -> 625 ;
626 [label="gini = 0.0\nsamples = 9\nvalue = [0, 0, 9, 0, 0, 0, 0]"] ;
625 -> 626 ;
627 [label="gini = 0.0\nsamples = 1\nvalue = [0, 1, 0, 0, 0, 0, 0]"] ;
625 -> 627 ;
628 [label="X[2] <= 16.5\ngini = 0.694\nsamples = 42\nvalue = [3, 13, 18, 1, 6, 0, 1]"] ;
620 -> 628 ;
629 [label="X[7] <= 0.088\ngini = 0.5\nsamples = 4\nvalue = [0, 2, 0, 0, 2, 0, 0]"] ;
628 -> 629 ;
630 [label="gini = 0.0\nsamples = 1\nvalue = [0, 0, 0, 0, 1, 0, 0]"] ;
629 -> 630 ;
631 [label="gini = 0.444\nsamples = 3\nvalue = [0, 2, 0, 0, 1, 0, 0]"] ;
629 -> 631 ;
632 [label="X[0] <= 5.5\ngini = 0.673\nsamples = 38\nvalue = [3, 11, 18, 1, 4, 0, 1]"] ;
628 -> 632 ;
633 [label="gini = 0.606\nsamples = 31\nvalue = [2, 9, 17, 0, 2, 0, 1]"] ;
632 -> 633 ;
634 [label="gini = 0.776\nsamples = 7\nvalue = [1, 2, 1, 1, 2, 0, 0]"] ;
632 -> 634 ;
635 [label="X[0] <= 4.5\ngini = 0.568\nsamples = 9\nvalue = [5, 3, 1, 0, 0, 0, 0]"] ;
609 -> 635 ;
636 [label="X[2] <= 12.5\ngini = 0.56\nsamples = 5\nvalue = [1, 3, 1, 0, 0, 0, 0]"] ;
635 -> 636 ;
637 [label="gini = 0.0\nsamples = 1\nvalue = [1, 0, 0, 0, 0, 0, 0]"] ;
636 -> 637 ;
638 [label="X[2] <= 18.5\ngini = 0.375\nsamples = 4\nvalue = [0, 3, 1, 0, 0, 0, 0]"] ;
636 -> 638 ;
639 [label="X[2] <= 16.5\ngini = 0.5\nsamples = 2\nvalue = [0, 1, 1, 0, 0, 0, 0]"] ;
638 -> 639 ;
640 [label="gini = 0.0\nsamples = 1\nvalue = [0, 1, 0, 0, 0, 0, 0]"] ;
639 -> 640 ;
641 [label="gini = 0.0\nsamples = 1\nvalue = [0, 0, 1, 0, 0, 0, 0]"] ;
639 -> 641 ;
642 [label="gini = 0.0\nsamples = 2\nvalue = [0, 2, 0, 0, 0, 0, 0]"] ;
638 -> 642 ;
643 [label="gini = 0.0\nsamples = 4\nvalue = [4, 0, 0, 0, 0, 0, 0]"] ;
635 -> 643 ;
644 [label="X[3] <= 3.5\ngini = 0.507\nsamples = 1810\nvalue = [149, 1217, 319, 10, 107, 0, 8]"] ;
550 -> 644 ;
645 [label="X[3] <= 0.5\ngini = 0.607\nsamples = 490\nvalue = [46, 270, 135, 3, 34, 0, 2]"] ;
644 -> 645 ;
646 [label="X[2] <= 21.5\ngini = 0.704\nsamples = 37\nvalue = [7, 7, 17, 1, 4, 0, 1]"] ;
645 -> 646 ;
647 [label="X[7] <= 0.154\ngini = 0.678\nsamples = 34\nvalue = [7, 4, 17, 1, 4, 0, 1]"] ;
646 -> 647 ;
648 [label="gini = 0.0\nsamples = 3\nvalue = [0, 3, 0, 0, 0, 0, 0]"] ;
647 -> 648 ;
649 [label="X[0] <= 4.5\ngini = 0.629\nsamples = 31\nvalue = [7, 1, 17, 1, 4, 0, 1]"] ;
647 -> 649 ;
650 [label="X[2] <= 11.0\ngini = 0.573\nsamples = 24\nvalue = [3, 1, 15, 1, 3, 0, 1]"] ;
649 -> 650 ;
651 [label="gini = 0.198\nsamples = 9\nvalue = [0, 0, 8, 0, 1, 0, 0]"] ;
650 -> 651 ;
652 [label="gini = 0.711\nsamples = 15\nvalue = [3, 1, 7, 1, 2, 0, 1]"] ;
650 -> 652 ;
653 [label="X[7] <= 0.211\ngini = 0.571\nsamples = 7\nvalue = [4, 0, 2, 0, 1, 0, 0]"] ;
649 -> 653 ;
654 [label="gini = 0.5\nsamples = 2\nvalue = [0, 0, 1, 0, 1, 0, 0]"] ;
653 -> 654 ;
655 [label="gini = 0.32\nsamples = 5\nvalue = [4, 0, 1, 0, 0, 0, 0]"] ;
653 -> 655 ;
656 [label="gini = 0.0\nsamples = 3\nvalue = [0, 3, 0, 0, 0, 0, 0]"] ;
646 -> 656 ;
657 [label="X[7] <= 0.274\ngini = 0.583\nsamples = 453\nvalue = [39, 263, 118, 2, 30, 0, 1]"] ;
645 -> 657 ;
658 [label="X[7] <= 0.23\ngini = 0.591\nsamples = 443\nvalue = [39, 253, 118, 2, 30, 0, 1]"] ;
657 -> 658 ;
659 [label="X[3] <= 2.0\ngini = 0.566\nsamples = 404\nvalue = [32, 240, 108, 1, 22, 0, 1]"] ;
658 -> 659 ;
660 [label="X[1] <= 0.5\ngini = 0.549\nsamples = 380\nvalue = [26, 232, 101, 0, 20, 0, 1]"] ;
659 -> 660 ;
661 [label="gini = 0.45\nsamples = 107\nvalue = [4, 76, 22, 0, 5, 0, 0]"] ;
660 -> 661 ;
662 [label="gini = 0.58\nsamples = 273\nvalue = [22, 156, 79, 0, 15, 0, 1]"] ;
660 -> 662 ;
663 [label="X[7] <= 0.155\ngini = 0.733\nsamples = 24\nvalue = [6, 8, 7, 1, 2, 0, 0]"] ;
659 -> 663 ;
664 [label="gini = 0.531\nsamples = 8\nvalue = [1, 5, 2, 0, 0, 0, 0]"] ;
663 -> 664 ;
665 [label="gini = 0.75\nsamples = 16\nvalue = [5, 3, 5, 1, 2, 0, 0]"] ;
663 -> 665 ;
666 [label="X[2] <= 17.5\ngini = 0.748\nsamples = 39\nvalue = [7, 13, 10, 1, 8, 0, 0]"] ;
658 -> 666 ;
667 [label="X[0] <= 5.5\ngini = 0.718\nsamples = 31\nvalue = [6, 12, 9, 1, 3, 0, 0]"] ;
666 -> 667 ;
668 [label="gini = 0.73\nsamples = 20\nvalue = [5, 5, 7, 0, 3, 0, 0]"] ;
667 -> 668 ;
669 [label="gini = 0.545\nsamples = 11\nvalue = [1, 7, 2, 1, 0, 0, 0]"] ;
667 -> 669 ;
670 [label="X[7] <= 0.234\ngini = 0.562\nsamples = 8\nvalue = [1, 1, 1, 0, 5, 0, 0]"] ;
666 -> 670 ;
671 [label="gini = 0.0\nsamples = 1\nvalue = [1, 0, 0, 0, 0, 0, 0]"] ;
670 -> 671 ;
672 [label="gini = 0.449\nsamples = 7\nvalue = [0, 1, 1, 0, 5, 0, 0]"] ;
670 -> 672 ;
673 [label="gini = 0.0\nsamples = 10\nvalue = [0, 10, 0, 0, 0, 0, 0]"] ;
657 -> 673 ;
674 [label="X[7] <= 0.148\ngini = 0.457\nsamples = 1320\nvalue = [103, 947, 184, 7, 73, 0, 6]"] ;
644 -> 674 ;
675 [label="X[7] <= 0.145\ngini = 0.53\nsamples = 742\nvalue = [61, 484, 131, 3, 58, 0, 5]"] ;
674 -> 675 ;
676 [label="X[2] <= 17.5\ngini = 0.51\nsamples = 693\nvalue = [54, 466, 109, 3, 57, 0, 4]"] ;
675 -> 676 ;
677 [label="X[7] <= 0.14\ngini = 0.574\nsamples = 427\nvalue = [40, 261, 75, 2, 48, 0, 1]"] ;
676 -> 677 ;
678 [label="X[7] <= 0.106\ngini = 0.609\nsamples = 344\nvalue = [37, 197, 66, 1, 42, 0, 1]"] ;
677 -> 678 ;
679 [label="gini = 0.497\nsamples = 139\nvalue = [13, 95, 20, 0, 11, 0, 0]"] ;
678 -> 679 ;
680 [label="gini = 0.665\nsamples = 205\nvalue = [24, 102, 46, 1, 31, 0, 1]"] ;
678 -> 680 ;
681 [label="X[1] <= 2.5\ngini = 0.387\nsamples = 83\nvalue = [3, 64, 9, 1, 6, 0, 0]"] ;
677 -> 681 ;
682 [label="gini = 0.299\nsamples = 59\nvalue = [2, 49, 5, 0, 3, 0, 0]"] ;
681 -> 682 ;
683 [label="gini = 0.562\nsamples = 24\nvalue = [1, 15, 4, 1, 3, 0, 0]"] ;
681 -> 683 ;
684 [label="X[0] <= 1.5\ngini = 0.386\nsamples = 266\nvalue = [14, 205, 34, 1, 9, 0, 3]"] ;
676 -> 684 ;
685 [label="X[7] <= 0.113\ngini = 0.196\nsamples = 66\nvalue = [2, 59, 4, 0, 1, 0, 0]"] ;
684 -> 685 ;
686 [label="gini = 0.088\nsamples = 44\nvalue = [1, 42, 1, 0, 0, 0, 0]"] ;
685 -> 686 ;
687 [label="gini = 0.38\nsamples = 22\nvalue = [1, 17, 3, 0, 1, 0, 0]"] ;
685 -> 687 ;
688 [label="X[2] <= 21.5\ngini = 0.439\nsamples = 200\nvalue = [12, 146, 30, 1, 8, 0, 3]"] ;
684 -> 688 ;
689 [label="gini = 0.38\nsamples = 145\nvalue = [4, 112, 21, 1, 5, 0, 2]"] ;
688 -> 689 ;
690 [label="gini = 0.567\nsamples = 55\nvalue = [8, 34, 9, 0, 3, 0, 1]"] ;
688 -> 690 ;
691 [label="X[0] <= 5.5\ngini = 0.642\nsamples = 49\nvalue = [7, 18, 22, 0, 1, 0, 1]"] ;
675 -> 691 ;
692 [label="X[1] <= 0.5\ngini = 0.641\nsamples = 46\nvalue = [7, 15, 22, 0, 1, 0, 1]"] ;
691 -> 692 ;
693 [label="X[0] <= 3.5\ngini = 0.58\nsamples = 10\nvalue = [2, 1, 6, 0, 0, 0, 1]"] ;
692 -> 693 ;
694 [label="gini = 0.5\nsamples = 6\nvalue = [0, 1, 4, 0, 0, 0, 1]"] ;
693 -> 694 ;
695 [label="gini = 0.5\nsamples = 4\nvalue = [2, 0, 2, 0, 0, 0, 0]"] ;
693 -> 695 ;
696 [label="X[1] <= 2.5\ngini = 0.631\nsamples = 36\nvalue = [5, 14, 16, 0, 1, 0, 0]"] ;
692 -> 696 ;
697 [label="gini = 0.624\nsamples = 25\nvalue = [3, 12, 9, 0, 1, 0, 0]"] ;
696 -> 697 ;
698 [label="gini = 0.529\nsamples = 11\nvalue = [2, 2, 7, 0, 0, 0, 0]"] ;
696 -> 698 ;
699 [label="gini = 0.0\nsamples = 3\nvalue = [0, 3, 0, 0, 0, 0, 0]"] ;
691 -> 699 ;
700 [label="X[7] <= 0.156\ngini = 0.344\nsamples = 578\nvalue = [42, 463, 53, 4, 15, 0, 1]"] ;
674 -> 700 ;
701 [label="X[2] <= 11.5\ngini = 0.2\nsamples = 361\nvalue = [20, 322, 14, 0, 5, 0, 0]"] ;
700 -> 701 ;
702 [label="X[0] <= 5.5\ngini = 0.34\nsamples = 96\nvalue = [9, 77, 8, 0, 2, 0, 0]"] ;
701 -> 702 ;
703 [label="X[2] <= 10.5\ngini = 0.254\nsamples = 85\nvalue = [6, 73, 5, 0, 1, 0, 0]"] ;
702 -> 703 ;
704 [label="gini = 0.206\nsamples = 80\nvalue = [5, 71, 4, 0, 0, 0, 0]"] ;
703 -> 704 ;
705 [label="gini = 0.72\nsamples = 5\nvalue = [1, 2, 1, 0, 1, 0, 0]"] ;
703 -> 705 ;
706 [label="X[1] <= 1.5\ngini = 0.711\nsamples = 11\nvalue = [3, 4, 3, 0, 1, 0, 0]"] ;
702 -> 706 ;
707 [label="gini = 0.375\nsamples = 4\nvalue = [0, 0, 3, 0, 1, 0, 0]"] ;
706 -> 707 ;
708 [label="gini = 0.49\nsamples = 7\nvalue = [3, 4, 0, 0, 0, 0, 0]"] ;
706 -> 708 ;
709 [label="X[2] <= 18.5\ngini = 0.143\nsamples = 265\nvalue = [11, 245, 6, 0, 3, 0, 0]"] ;
701 -> 709 ;
710 [label="X[0] <= 0.5\ngini = 0.083\nsamples = 141\nvalue = [1, 135, 3, 0, 2, 0, 0]"] ;
709 -> 710 ;
711 [label="gini = 0.219\nsamples = 8\nvalue = [0, 7, 1, 0, 0, 0, 0]"] ;
710 -> 711 ;
712 [label="gini = 0.073\nsamples = 133\nvalue = [1, 128, 2, 0, 2, 0, 0]"] ;
710 -> 712 ;
713 [label="X[0] <= 2.5\ngini = 0.206\nsamples = 124\nvalue = [10, 110, 3, 0, 1, 0, 0]"] ;
709 -> 713 ;
714 [label="gini = 0.053\nsamples = 37\nvalue = [0, 36, 1, 0, 0, 0, 0]"] ;
713 -> 714 ;
715 [label="gini = 0.263\nsamples = 87\nvalue = [10, 74, 2, 0, 1, 0, 0]"] ;
713 -> 715 ;
716 [label="X[2] <= 21.5\ngini = 0.533\nsamples = 217\nvalue = [22, 141, 39, 4, 10, 0, 1]"] ;
700 -> 716 ;
717 [label="X[7] <= 0.163\ngini = 0.484\nsamples = 190\nvalue = [17, 132, 29, 4, 8, 0, 0]"] ;
716 -> 717 ;
718 [label="X[1] <= 0.5\ngini = 0.662\nsamples = 25\nvalue = [8, 11, 5, 0, 1, 0, 0]"] ;
717 -> 718 ;
719 [label="gini = 0.219\nsamples = 8\nvalue = [0, 7, 1, 0, 0, 0, 0]"] ;
718 -> 719 ;
720 [label="gini = 0.664\nsamples = 17\nvalue = [8, 4, 4, 0, 1, 0, 0]"] ;
718 -> 720 ;
721 [label="X[7] <= 1806.362\ngini = 0.436\nsamples = 165\nvalue = [9, 121, 24, 4, 7, 0, 0]"] ;
717 -> 721 ;
722 [label="gini = 0.425\nsamples = 163\nvalue = [9, 121, 22, 4, 7, 0, 0]"] ;
721 -> 722 ;
723 [label="gini = 0.0\nsamples = 2\nvalue = [0, 0, 2, 0, 0, 0, 0]"] ;
721 -> 723 ;
724 [label="X[2] <= 22.5\ngini = 0.711\nsamples = 27\nvalue = [5, 9, 10, 0, 2, 0, 1]"] ;
716 -> 724 ;
725 [label="X[0] <= 3.5\ngini = 0.672\nsamples = 16\nvalue = [5, 3, 7, 0, 0, 0, 1]"] ;
724 -> 725 ;
726 [label="gini = 0.449\nsamples = 7\nvalue = [1, 1, 5, 0, 0, 0, 0]"] ;
725 -> 726 ;
727 [label="gini = 0.691\nsamples = 9\nvalue = [4, 2, 2, 0, 0, 0, 1]"] ;
725 -> 727 ;
728 [label="X[7] <= 0.163\ngini = 0.595\nsamples = 11\nvalue = [0, 6, 3, 0, 2, 0, 0]"] ;
724 -> 728 ;
729 [label="gini = 0.0\nsamples = 2\nvalue = [0, 0, 0, 0, 2, 0, 0]"] ;
728 -> 729 ;
730 [label="gini = 0.444\nsamples = 9\nvalue = [0, 6, 3, 0, 0, 0, 0]"] ;
728 -> 730 ;
731 [label="X[7] <= 0.091\ngini = 0.722\nsamples = 1202\nvalue = [222, 368, 444, 15, 139, 2, 12]"] ;
407 -> 731 ;
732 [label="X[7] <= 0.089\ngini = 0.694\nsamples = 527\nvalue = [105, 105, 244, 10, 57, 1, 5]"] ;
731 -> 732 ;
733 [label="X[3] <= 3.5\ngini = 0.722\nsamples = 343\nvalue = [78, 94, 127, 0, 41, 0, 3]"] ;
732 -> 733 ;
734 [label="X[7] <= 0.027\ngini = 0.723\nsamples = 248\nvalue = [59, 81, 79, 0, 27, 0, 2]"] ;
733 -> 734 ;
735 [label="X[7] <= 0.021\ngini = 0.616\nsamples = 41\nvalue = [6, 23, 8, 0, 4, 0, 0]"] ;
734 -> 735 ;
736 [label="X[1] <= 0.5\ngini = 0.604\nsamples = 13\nvalue = [1, 4, 7, 0, 1, 0, 0]"] ;
735 -> 736 ;
737 [label="X[7] <= 0.02\ngini = 0.444\nsamples = 3\nvalue = [1, 2, 0, 0, 0, 0, 0]"] ;
736 -> 737 ;
738 [label="gini = 0.5\nsamples = 2\nvalue = [1, 1, 0, 0, 0, 0, 0]"] ;
737 -> 738 ;
739 [label="gini = 0.0\nsamples = 1\nvalue = [0, 1, 0, 0, 0, 0, 0]"] ;
737 -> 739 ;
740 [label="X[1] <= 1.5\ngini = 0.46\nsamples = 10\nvalue = [0, 2, 7, 0, 1, 0, 0]"] ;
736 -> 740 ;
741 [label="X[2] <= 13.0\ngini = 0.611\nsamples = 6\nvalue = [0, 2, 3, 0, 1, 0, 0]"] ;
740 -> 741 ;
742 [label="gini = 0.0\nsamples = 1\nvalue = [0, 1, 0, 0, 0, 0, 0]"] ;
741 -> 742 ;
743 [label="gini = 0.56\nsamples = 5\nvalue = [0, 1, 3, 0, 1, 0, 0]"] ;
741 -> 743 ;
744 [label="gini = 0.0\nsamples = 4\nvalue = [0, 0, 4, 0, 0, 0, 0]"] ;
740 -> 744 ;
745 [label="X[2] <= 19.5\ngini = 0.495\nsamples = 28\nvalue = [5, 19, 1, 0, 3, 0, 0]"] ;
735 -> 745 ;
746 [label="X[1] <= 2.5\ngini = 0.24\nsamples = 15\nvalue = [1, 13, 0, 0, 1, 0, 0]"] ;
745 -> 746 ;
747 [label="gini = 0.0\nsamples = 9\nvalue = [0, 9, 0, 0, 0, 0, 0]"] ;
746 -> 747 ;
748 [label="X[0] <= 4.0\ngini = 0.5\nsamples = 6\nvalue = [1, 4, 0, 0, 1, 0, 0]"] ;
746 -> 748 ;
749 [label="gini = 0.0\nsamples = 1\nvalue = [1, 0, 0, 0, 0, 0, 0]"] ;
748 -> 749 ;
750 [label="gini = 0.32\nsamples = 5\nvalue = [0, 4, 0, 0, 1, 0, 0]"] ;
748 -> 750 ;
751 [label="X[2] <= 21.0\ngini = 0.663\nsamples = 13\nvalue = [4, 6, 1, 0, 2, 0, 0]"] ;
745 -> 751 ;
752 [label="X[1] <= 2.5\ngini = 0.32\nsamples = 5\nvalue = [4, 0, 0, 0, 1, 0, 0]"] ;
751 -> 752 ;
753 [label="gini = 0.5\nsamples = 2\nvalue = [1, 0, 0, 0, 1, 0, 0]"] ;
752 -> 753 ;
754 [label="gini = 0.0\nsamples = 3\nvalue = [3, 0, 0, 0, 0, 0, 0]"] ;
752 -> 754 ;
755 [label="X[7] <= 0.025\ngini = 0.406\nsamples = 8\nvalue = [0, 6, 1, 0, 1, 0, 0]"] ;
751 -> 755 ;
756 [label="gini = 0.245\nsamples = 7\nvalue = [0, 6, 0, 0, 1, 0, 0]"] ;
755 -> 756 ;
757 [label="gini = 0.0\nsamples = 1\nvalue = [0, 0, 1, 0, 0, 0, 0]"] ;
755 -> 757 ;
758 [label="X[3] <= 2.5\ngini = 0.726\nsamples = 207\nvalue = [53, 58, 71, 0, 23, 0, 2]"] ;
734 -> 758 ;
759 [label="X[0] <= 5.5\ngini = 0.661\nsamples = 82\nvalue = [30, 17, 33, 0, 1, 0, 1]"] ;
758 -> 759 ;
760 [label="X[7] <= 0.046\ngini = 0.658\nsamples = 69\nvalue = [21, 15, 31, 0, 1, 0, 1]"] ;
759 -> 760 ;
761 [label="X[2] <= 15.5\ngini = 0.625\nsamples = 12\nvalue = [1, 6, 4, 0, 1, 0, 0]"] ;
760 -> 761 ;
762 [label="gini = 0.571\nsamples = 7\nvalue = [1, 2, 4, 0, 0, 0, 0]"] ;
761 -> 762 ;
763 [label="gini = 0.32\nsamples = 5\nvalue = [0, 4, 0, 0, 1, 0, 0]"] ;
761 -> 763 ;
764 [label="X[5] <= 7.5\ngini = 0.627\nsamples = 57\nvalue = [20, 9, 27, 0, 0, 0, 1]"] ;
760 -> 764 ;
765 [label="gini = 0.64\nsamples = 29\nvalue = [14, 5, 9, 0, 0, 0, 1]"] ;
764 -> 765 ;
766 [label="gini = 0.52\nsamples = 28\nvalue = [6, 4, 18, 0, 0, 0, 0]"] ;
764 -> 766 ;
767 [label="X[7] <= 0.035\ngini = 0.473\nsamples = 13\nvalue = [9, 2, 2, 0, 0, 0, 0]"] ;
759 -> 767 ;
768 [label="gini = 0.0\nsamples = 1\nvalue = [0, 0, 1, 0, 0, 0, 0]"] ;
767 -> 768 ;
769 [label="X[1] <= 2.5\ngini = 0.403\nsamples = 12\nvalue = [9, 2, 1, 0, 0, 0, 0]"] ;
767 -> 769 ;
770 [label="gini = 0.298\nsamples = 11\nvalue = [9, 2, 0, 0, 0, 0, 0]"] ;
769 -> 770 ;
771 [label="gini = 0.0\nsamples = 1\nvalue = [0, 0, 1, 0, 0, 0, 0]"] ;
769 -> 771 ;
772 [label="X[7] <= 0.08\ngini = 0.735\nsamples = 125\nvalue = [23, 41, 38, 0, 22, 0, 1]"] ;
758 -> 772 ;
773 [label="X[0] <= 5.5\ngini = 0.734\nsamples = 115\nvalue = [23, 40, 32, 0, 19, 0, 1]"] ;
772 -> 773 ;
774 [label="X[2] <= 14.5\ngini = 0.707\nsamples = 84\nvalue = [17, 33, 25, 0, 8, 0, 1]"] ;
773 -> 774 ;
775 [label="gini = 0.666\nsamples = 40\nvalue = [7, 20, 7, 0, 6, 0, 0]"] ;
774 -> 775 ;
776 [label="gini = 0.691\nsamples = 44\nvalue = [10, 13, 18, 0, 2, 0, 1]"] ;
774 -> 776 ;
777 [label="X[7] <= 0.059\ngini = 0.735\nsamples = 31\nvalue = [6, 7, 7, 0, 11, 0, 0]"] ;
773 -> 777 ;
778 [label="gini = 0.698\nsamples = 18\nvalue = [6, 5, 1, 0, 6, 0, 0]"] ;
777 -> 778 ;
779 [label="gini = 0.615\nsamples = 13\nvalue = [0, 2, 6, 0, 5, 0, 0]"] ;
777 -> 779 ;
780 [label="X[1] <= 1.5\ngini = 0.54\nsamples = 10\nvalue = [0, 1, 6, 0, 3, 0, 0]"] ;
772 -> 780 ;
781 [label="X[1] <= 0.5\ngini = 0.32\nsamples = 5\nvalue = [0, 1, 4, 0, 0, 0, 0]"] ;
780 -> 781 ;
782 [label="gini = 0.5\nsamples = 2\nvalue = [0, 1, 1, 0, 0, 0, 0]"] ;
781 -> 782 ;
783 [label="gini = 0.0\nsamples = 3\nvalue = [0, 0, 3, 0, 0, 0, 0]"] ;
781 -> 783 ;
784 [label="X[7] <= 0.083\ngini = 0.48\nsamples = 5\nvalue = [0, 0, 2, 0, 3, 0, 0]"] ;
780 -> 784 ;
785 [label="gini = 0.0\nsamples = 2\nvalue = [0, 0, 0, 0, 2, 0, 0]"] ;
784 -> 785 ;
786 [label="gini = 0.444\nsamples = 3\nvalue = [0, 0, 2, 0, 1, 0, 0]"] ;
784 -> 786 ;
787 [label="X[7] <= 0.043\ngini = 0.664\nsamples = 95\nvalue = [19, 13, 48, 0, 14, 0, 1]"] ;
733 -> 787 ;
788 [label="X[2] <= 15.0\ngini = 0.421\nsamples = 38\nvalue = [6, 4, 28, 0, 0, 0, 0]"] ;
787 -> 788 ;
789 [label="X[7] <= 0.038\ngini = 0.48\nsamples = 15\nvalue = [1, 4, 10, 0, 0, 0, 0]"] ;
788 -> 789 ;
790 [label="X[0] <= 5.0\ngini = 0.375\nsamples = 4\nvalue = [0, 3, 1, 0, 0, 0, 0]"] ;
789 -> 790 ;
791 [label="gini = 0.0\nsamples = 3\nvalue = [0, 3, 0, 0, 0, 0, 0]"] ;
790 -> 791 ;
792 [label="gini = 0.0\nsamples = 1\nvalue = [0, 0, 1, 0, 0, 0, 0]"] ;
790 -> 792 ;
793 [label="X[0] <= 1.5\ngini = 0.314\nsamples = 11\nvalue = [1, 1, 9, 0, 0, 0, 0]"] ;
789 -> 793 ;
794 [label="X[0] <= 0.5\ngini = 0.5\nsamples = 6\nvalue = [1, 1, 4, 0, 0, 0, 0]"] ;
793 -> 794 ;
795 [label="gini = 0.0\nsamples = 3\nvalue = [0, 0, 3, 0, 0, 0, 0]"] ;
794 -> 795 ;
796 [label="gini = 0.667\nsamples = 3\nvalue = [1, 1, 1, 0, 0, 0, 0]"] ;
794 -> 796 ;
797 [label="gini = 0.0\nsamples = 5\nvalue = [0, 0, 5, 0, 0, 0, 0]"] ;
793 -> 797 ;
798 [label="X[2] <= 21.0\ngini = 0.34\nsamples = 23\nvalue = [5, 0, 18, 0, 0, 0, 0]"] ;
788 -> 798 ;
799 [label="X[1] <= 1.5\ngini = 0.401\nsamples = 18\nvalue = [5, 0, 13, 0, 0, 0, 0]"] ;
798 -> 799 ;
800 [label="X[0] <= 5.5\ngini = 0.298\nsamples = 11\nvalue = [2, 0, 9, 0, 0, 0, 0]"] ;
799 -> 800 ;
801 [label="gini = 0.198\nsamples = 9\nvalue = [1, 0, 8, 0, 0, 0, 0]"] ;
800 -> 801 ;
802 [label="gini = 0.5\nsamples = 2\nvalue = [1, 0, 1, 0, 0, 0, 0]"] ;
800 -> 802 ;
803 [label="X[0] <= 4.5\ngini = 0.49\nsamples = 7\nvalue = [3, 0, 4, 0, 0, 0, 0]"] ;
799 -> 803 ;
804 [label="gini = 0.48\nsamples = 5\nvalue = [3, 0, 2, 0, 0, 0, 0]"] ;
803 -> 804 ;
805 [label="gini = 0.0\nsamples = 2\nvalue = [0, 0, 2, 0, 0, 0, 0]"] ;
803 -> 805 ;
806 [label="gini = 0.0\nsamples = 5\nvalue = [0, 0, 5, 0, 0, 0, 0]"] ;
798 -> 806 ;
807 [label="X[7] <= 0.053\ngini = 0.739\nsamples = 57\nvalue = [13, 9, 20, 0, 14, 0, 1]"] ;
787 -> 807 ;
808 [label="X[1] <= 2.5\ngini = 0.593\nsamples = 9\nvalue = [4, 4, 0, 0, 1, 0, 0]"] ;
807 -> 808 ;
809 [label="X[2] <= 2.0\ngini = 0.49\nsamples = 7\nvalue = [3, 4, 0, 0, 0, 0, 0]"] ;
808 -> 809 ;
810 [label="gini = 0.0\nsamples = 1\nvalue = [1, 0, 0, 0, 0, 0, 0]"] ;
809 -> 810 ;
811 [label="X[7] <= 0.048\ngini = 0.444\nsamples = 6\nvalue = [2, 4, 0, 0, 0, 0, 0]"] ;
809 -> 811 ;
812 [label="gini = 0.0\nsamples = 1\nvalue = [0, 1, 0, 0, 0, 0, 0]"] ;
811 -> 812 ;
813 [label="gini = 0.48\nsamples = 5\nvalue = [2, 3, 0, 0, 0, 0, 0]"] ;
811 -> 813 ;
814 [label="gini = 0.5\nsamples = 2\nvalue = [1, 0, 0, 0, 1, 0, 0]"] ;
808 -> 814 ;
815 [label="X[7] <= 0.073\ngini = 0.707\nsamples = 48\nvalue = [9, 5, 20, 0, 13, 0, 1]"] ;
807 -> 815 ;
816 [label="X[2] <= 12.5\ngini = 0.62\nsamples = 30\nvalue = [6, 1, 16, 0, 7, 0, 0]"] ;
815 -> 816 ;
817 [label="gini = 0.0\nsamples = 5\nvalue = [0, 0, 5, 0, 0, 0, 0]"] ;
816 -> 817 ;
818 [label="X[0] <= 0.5\ngini = 0.669\nsamples = 25\nvalue = [6, 1, 11, 0, 7, 0, 0]"] ;
816 -> 818 ;
819 [label="gini = 0.611\nsamples = 6\nvalue = [2, 0, 1, 0, 3, 0, 0]"] ;
818 -> 819 ;
820 [label="gini = 0.632\nsamples = 19\nvalue = [4, 1, 10, 0, 4, 0, 0]"] ;
818 -> 820 ;
821 [label="X[0] <= 0.5\ngini = 0.759\nsamples = 18\nvalue = [3, 4, 4, 0, 6, 0, 1]"] ;
815 -> 821 ;
822 [label="gini = 0.0\nsamples = 2\nvalue = [0, 0, 2, 0, 0, 0, 0]"] ;
821 -> 822 ;
823 [label="X[7] <= 0.083\ngini = 0.742\nsamples = 16\nvalue = [3, 4, 2, 0, 6, 0, 1]"] ;
821 -> 823 ;
824 [label="gini = 0.653\nsamples = 12\nvalue = [2, 3, 0, 0, 6, 0, 1]"] ;
823 -> 824 ;
825 [label="gini = 0.625\nsamples = 4\nvalue = [1, 1, 2, 0, 0, 0, 0]"] ;
823 -> 825 ;
826 [label="X[2] <= 16.5\ngini = 0.56\nsamples = 184\nvalue = [27, 11, 117, 10, 16, 1, 2]"] ;
732 -> 826 ;
827 [label="X[0] <= 4.5\ngini = 0.626\nsamples = 126\nvalue = [20, 7, 72, 9, 15, 1, 2]"] ;
826 -> 827 ;
828 [label="X[2] <= 4.5\ngini = 0.607\nsamples = 84\nvalue = [8, 5, 50, 9, 10, 1, 1]"] ;
827 -> 828 ;
829 [label="X[2] <= 0.5\ngini = 0.735\nsamples = 7\nvalue = [2, 1, 2, 0, 2, 0, 0]"] ;
828 -> 829 ;
830 [label="X[0] <= 1.5\ngini = 0.625\nsamples = 4\nvalue = [1, 1, 2, 0, 0, 0, 0]"] ;
829 -> 830 ;
831 [label="gini = 0.5\nsamples = 2\nvalue = [1, 0, 1, 0, 0, 0, 0]"] ;
830 -> 831 ;
832 [label="X[0] <= 3.0\ngini = 0.5\nsamples = 2\nvalue = [0, 1, 1, 0, 0, 0, 0]"] ;
830 -> 832 ;
833 [label="gini = 0.0\nsamples = 1\nvalue = [0, 1, 0, 0, 0, 0, 0]"] ;
832 -> 833 ;
834 [label="gini = 0.0\nsamples = 1\nvalue = [0, 0, 1, 0, 0, 0, 0]"] ;
832 -> 834 ;
835 [label="X[1] <= 2.0\ngini = 0.444\nsamples = 3\nvalue = [1, 0, 0, 0, 2, 0, 0]"] ;
829 -> 835 ;
836 [label="gini = 0.0\nsamples = 1\nvalue = [1, 0, 0, 0, 0, 0, 0]"] ;
835 -> 836 ;
837 [label="gini = 0.0\nsamples = 2\nvalue = [0, 0, 0, 0, 2, 0, 0]"] ;
835 -> 837 ;
838 [label="X[2] <= 7.5\ngini = 0.578\nsamples = 77\nvalue = [6, 4, 48, 9, 8, 1, 1]"] ;
828 -> 838 ;
839 [label="gini = 0.0\nsamples = 6\nvalue = [0, 0, 6, 0, 0, 0, 0]"] ;
838 -> 839 ;
840 [label="X[0] <= 3.5\ngini = 0.611\nsamples = 71\nvalue = [6, 4, 42, 9, 8, 1, 1]"] ;
838 -> 840 ;
841 [label="X[1] <= 2.5\ngini = 0.579\nsamples = 55\nvalue = [5, 2, 34, 5, 8, 1, 0]"] ;
840 -> 841 ;
842 [label="gini = 0.585\nsamples = 39\nvalue = [5, 2, 24, 4, 3, 1, 0]"] ;
841 -> 842 ;
843 [label="gini = 0.508\nsamples = 16\nvalue = [0, 0, 10, 1, 5, 0, 0]"] ;
841 -> 843 ;
844 [label="X[2] <= 14.5\ngini = 0.664\nsamples = 16\nvalue = [1, 2, 8, 4, 0, 0, 1]"] ;
840 -> 844 ;
845 [label="gini = 0.72\nsamples = 10\nvalue = [1, 1, 3, 4, 0, 0, 1]"] ;
844 -> 845 ;
846 [label="gini = 0.278\nsamples = 6\nvalue = [0, 1, 5, 0, 0, 0, 0]"] ;
844 -> 846 ;
847 [label="X[1] <= 2.5\ngini = 0.627\nsamples = 42\nvalue = [12, 2, 22, 0, 5, 0, 1]"] ;
827 -> 847 ;
848 [label="X[0] <= 5.5\ngini = 0.528\nsamples = 28\nvalue = [6, 1, 18, 0, 3, 0, 0]"] ;
847 -> 848 ;
849 [label="X[2] <= 14.5\ngini = 0.314\nsamples = 11\nvalue = [0, 1, 9, 0, 1, 0, 0]"] ;
848 -> 849 ;
850 [label="gini = 0.0\nsamples = 6\nvalue = [0, 0, 6, 0, 0, 0, 0]"] ;
849 -> 850 ;
851 [label="gini = 0.56\nsamples = 5\nvalue = [0, 1, 3, 0, 1, 0, 0]"] ;
849 -> 851 ;
852 [label="X[1] <= 1.5\ngini = 0.581\nsamples = 17\nvalue = [6, 0, 9, 0, 2, 0, 0]"] ;
848 -> 852 ;
853 [label="X[2] <= 7.5\ngini = 0.64\nsamples = 10\nvalue = [4, 0, 4, 0, 2, 0, 0]"] ;
852 -> 853 ;
854 [label="gini = 0.0\nsamples = 2\nvalue = [0, 0, 2, 0, 0, 0, 0]"] ;
853 -> 854 ;
855 [label="gini = 0.625\nsamples = 8\nvalue = [4, 0, 2, 0, 2, 0, 0]"] ;
853 -> 855 ;
856 [label="X[2] <= 7.5\ngini = 0.408\nsamples = 7\nvalue = [2, 0, 5, 0, 0, 0, 0]"] ;
852 -> 856 ;
857 [label="gini = 0.0\nsamples = 1\nvalue = [1, 0, 0, 0, 0, 0, 0]"] ;
856 -> 857 ;
858 [label="gini = 0.278\nsamples = 6\nvalue = [1, 0, 5, 0, 0, 0, 0]"] ;
856 -> 858 ;
859 [label="X[2] <= 5.5\ngini = 0.704\nsamples = 14\nvalue = [6, 1, 4, 0, 2, 0, 1]"] ;
847 -> 859 ;
860 [label="X[0] <= 5.5\ngini = 0.5\nsamples = 2\nvalue = [0, 1, 0, 0, 1, 0, 0]"] ;
859 -> 860 ;
861 [label="gini = 0.0\nsamples = 1\nvalue = [0, 0, 0, 0, 1, 0, 0]"] ;
860 -> 861 ;
862 [label="gini = 0.0\nsamples = 1\nvalue = [0, 1, 0, 0, 0, 0, 0]"] ;
860 -> 862 ;
863 [label="X[2] <= 12.5\ngini = 0.625\nsamples = 12\nvalue = [6, 0, 4, 0, 1, 0, 1]"] ;
859 -> 863 ;
864 [label="X[2] <= 10.0\ngini = 0.469\nsamples = 8\nvalue = [5, 0, 3, 0, 0, 0, 0]"] ;
863 -> 864 ;
865 [label="gini = 0.5\nsamples = 2\nvalue = [1, 0, 1, 0, 0, 0, 0]"] ;
864 -> 865 ;
866 [label="gini = 0.444\nsamples = 6\nvalue = [4, 0, 2, 0, 0, 0, 0]"] ;
864 -> 866 ;
867 [label="X[7] <= 0.089\ngini = 0.75\nsamples = 4\nvalue = [1, 0, 1, 0, 1, 0, 1]"] ;
863 -> 867 ;
868 [label="gini = 0.5\nsamples = 2\nvalue = [0, 0, 1, 0, 0, 0, 1]"] ;
867 -> 868 ;
869 [label="gini = 0.5\nsamples = 2\nvalue = [1, 0, 0, 0, 1, 0, 0]"] ;
867 -> 869 ;
870 [label="X[1] <= 1.5\ngini = 0.378\nsamples = 58\nvalue = [7, 4, 45, 1, 1, 0, 0]"] ;
826 -> 870 ;
871 [label="X[7] <= 0.09\ngini = 0.54\nsamples = 33\nvalue = [7, 3, 21, 1, 1, 0, 0]"] ;
870 -> 871 ;
872 [label="X[0] <= 1.0\ngini = 0.523\nsamples = 32\nvalue = [6, 3, 21, 1, 1, 0, 0]"] ;
871 -> 872 ;
873 [label="gini = 0.0\nsamples = 4\nvalue = [0, 0, 4, 0, 0, 0, 0]"] ;
872 -> 873 ;
874 [label="X[2] <= 17.5\ngini = 0.571\nsamples = 28\nvalue = [6, 3, 17, 1, 1, 0, 0]"] ;
872 -> 874 ;
875 [label="X[0] <= 5.5\ngini = 0.245\nsamples = 7\nvalue = [1, 0, 6, 0, 0, 0, 0]"] ;
874 -> 875 ;
876 [label="gini = 0.0\nsamples = 6\nvalue = [0, 0, 6, 0, 0, 0, 0]"] ;
875 -> 876 ;
877 [label="gini = 0.0\nsamples = 1\nvalue = [1, 0, 0, 0, 0, 0, 0]"] ;
875 -> 877 ;
878 [label="X[0] <= 2.5\ngini = 0.644\nsamples = 21\nvalue = [5, 3, 11, 1, 1, 0, 0]"] ;
874 -> 878 ;
879 [label="gini = 0.722\nsamples = 6\nvalue = [2, 1, 2, 0, 1, 0, 0]"] ;
878 -> 879 ;
880 [label="gini = 0.578\nsamples = 15\nvalue = [3, 2, 9, 1, 0, 0, 0]"] ;
878 -> 880 ;
881 [label="gini = 0.0\nsamples = 1\nvalue = [1, 0, 0, 0, 0, 0, 0]"] ;
871 -> 881 ;
882 [label="X[7] <= 0.09\ngini = 0.077\nsamples = 25\nvalue = [0, 1, 24, 0, 0, 0, 0]"] ;
870 -> 882 ;
883 [label="gini = 0.0\nsamples = 24\nvalue = [0, 0, 24, 0, 0, 0, 0]"] ;
882 -> 883 ;
884 [label="gini = 0.0\nsamples = 1\nvalue = [0, 1, 0, 0, 0, 0, 0]"] ;
882 -> 884 ;
885 [label="X[3] <= 2.5\ngini = 0.715\nsamples = 675\nvalue = [117, 263, 200, 5, 82, 1, 7]"] ;
731 -> 885 ;
886 [label="X[5] <= 7.5\ngini = 0.705\nsamples = 151\nvalue = [43, 32, 61, 1, 11, 0, 3]"] ;
885 -> 886 ;
887 [label="X[7] <= 0.152\ngini = 0.538\nsamples = 24\nvalue = [15, 4, 5, 0, 0, 0, 0]"] ;
886 -> 887 ;
888 [label="X[7] <= 0.118\ngini = 0.5\nsamples = 6\nvalue = [1, 4, 1, 0, 0, 0, 0]"] ;
887 -> 888 ;
889 [label="gini = 0.0\nsamples = 1\nvalue = [1, 0, 0, 0, 0, 0, 0]"] ;
888 -> 889 ;
890 [label="X[2] <= 1.5\ngini = 0.32\nsamples = 5\nvalue = [0, 4, 1, 0, 0, 0, 0]"] ;
888 -> 890 ;
891 [label="gini = 0.0\nsamples = 1\nvalue = [0, 0, 1, 0, 0, 0, 0]"] ;
890 -> 891 ;
892 [label="gini = 0.0\nsamples = 4\nvalue = [0, 4, 0, 0, 0, 0, 0]"] ;
890 -> 892 ;
893 [label="X[2] <= 18.0\ngini = 0.346\nsamples = 18\nvalue = [14, 0, 4, 0, 0, 0, 0]"] ;
887 -> 893 ;
894 [label="X[2] <= 3.5\ngini = 0.291\nsamples = 17\nvalue = [14, 0, 3, 0, 0, 0, 0]"] ;
893 -> 894 ;
895 [label="gini = 0.5\nsamples = 2\nvalue = [1, 0, 1, 0, 0, 0, 0]"] ;
894 -> 895 ;
896 [label="X[2] <= 13.0\ngini = 0.231\nsamples = 15\nvalue = [13, 0, 2, 0, 0, 0, 0]"] ;
894 -> 896 ;
897 [label="gini = 0.0\nsamples = 6\nvalue = [6, 0, 0, 0, 0, 0, 0]"] ;
896 -> 897 ;
898 [label="X[2] <= 15.0\ngini = 0.346\nsamples = 9\nvalue = [7, 0, 2, 0, 0, 0, 0]"] ;
896 -> 898 ;
899 [label="gini = 0.0\nsamples = 1\nvalue = [0, 0, 1, 0, 0, 0, 0]"] ;
898 -> 899 ;
900 [label="gini = 0.219\nsamples = 8\nvalue = [7, 0, 1, 0, 0, 0, 0]"] ;
898 -> 900 ;
901 [label="gini = 0.0\nsamples = 1\nvalue = [0, 0, 1, 0, 0, 0, 0]"] ;
893 -> 901 ;
902 [label="X[7] <= 0.186\ngini = 0.7\nsamples = 127\nvalue = [28, 28, 56, 1, 11, 0, 3]"] ;
886 -> 902 ;
903 [label="X[2] <= 17.5\ngini = 0.632\nsamples = 50\nvalue = [7, 6, 28, 1, 7, 0, 1]"] ;
902 -> 903 ;
904 [label="X[7] <= 0.104\ngini = 0.482\nsamples = 26\nvalue = [4, 1, 18, 0, 3, 0, 0]"] ;
903 -> 904 ;
905 [label="gini = 0.0\nsamples = 2\nvalue = [2, 0, 0, 0, 0, 0, 0]"] ;
904 -> 905 ;
906 [label="X[2] <= 2.5\ngini = 0.413\nsamples = 24\nvalue = [2, 1, 18, 0, 3, 0, 0]"] ;
904 -> 906 ;
907 [label="X[0] <= 3.5\ngini = 0.72\nsamples = 5\nvalue = [1, 1, 2, 0, 1, 0, 0]"] ;
906 -> 907 ;
908 [label="gini = 0.0\nsamples = 2\nvalue = [0, 0, 2, 0, 0, 0, 0]"] ;
907 -> 908 ;
909 [label="gini = 0.667\nsamples = 3\nvalue = [1, 1, 0, 0, 1, 0, 0]"] ;
907 -> 909 ;
910 [label="X[2] <= 13.5\ngini = 0.277\nsamples = 19\nvalue = [1, 0, 16, 0, 2, 0, 0]"] ;
906 -> 910 ;
911 [label="gini = 0.0\nsamples = 8\nvalue = [0, 0, 8, 0, 0, 0, 0]"] ;
910 -> 911 ;
912 [label="gini = 0.43\nsamples = 11\nvalue = [1, 0, 8, 0, 2, 0, 0]"] ;
910 -> 912 ;
913 [label="X[2] <= 18.5\ngini = 0.736\nsamples = 24\nvalue = [3, 5, 10, 1, 4, 0, 1]"] ;
903 -> 913 ;
914 [label="X[0] <= 0.5\ngini = 0.656\nsamples = 8\nvalue = [1, 4, 1, 0, 2, 0, 0]"] ;
913 -> 914 ;
915 [label="gini = 0.667\nsamples = 3\nvalue = [1, 1, 1, 0, 0, 0, 0]"] ;
914 -> 915 ;
916 [label="X[0] <= 3.5\ngini = 0.48\nsamples = 5\nvalue = [0, 3, 0, 0, 2, 0, 0]"] ;
914 -> 916 ;
917 [label="gini = 0.5\nsamples = 2\nvalue = [0, 1, 0, 0, 1, 0, 0]"] ;
916 -> 917 ;
918 [label="gini = 0.444\nsamples = 3\nvalue = [0, 2, 0, 0, 1, 0, 0]"] ;
916 -> 918 ;
919 [label="X[1] <= 2.5\ngini = 0.641\nsamples = 16\nvalue = [2, 1, 9, 1, 2, 0, 1]"] ;
913 -> 919 ;
920 [label="X[2] <= 19.5\ngini = 0.551\nsamples = 14\nvalue = [2, 1, 9, 1, 0, 0, 1]"] ;
919 -> 920 ;
921 [label="gini = 0.667\nsamples = 3\nvalue = [1, 0, 1, 0, 0, 0, 1]"] ;
920 -> 921 ;
922 [label="gini = 0.446\nsamples = 11\nvalue = [1, 1, 8, 1, 0, 0, 0]"] ;
920 -> 922 ;
923 [label="gini = 0.0\nsamples = 2\nvalue = [0, 0, 0, 0, 2, 0, 0]"] ;
919 -> 923 ;
924 [label="X[7] <= 0.195\ngini = 0.708\nsamples = 77\nvalue = [21, 22, 28, 0, 4, 0, 2]"] ;
902 -> 924 ;
925 [label="X[7] <= 0.187\ngini = 0.5\nsamples = 6\nvalue = [1, 4, 0, 0, 1, 0, 0]"] ;
924 -> 925 ;
926 [label="gini = 0.0\nsamples = 1\nvalue = [1, 0, 0, 0, 0, 0, 0]"] ;
925 -> 926 ;
927 [label="X[0] <= 4.5\ngini = 0.32\nsamples = 5\nvalue = [0, 4, 0, 0, 1, 0, 0]"] ;
925 -> 927 ;
928 [label="gini = 0.0\nsamples = 4\nvalue = [0, 4, 0, 0, 0, 0, 0]"] ;
927 -> 928 ;
929 [label="gini = 0.0\nsamples = 1\nvalue = [0, 0, 0, 0, 1, 0, 0]"] ;
927 -> 929 ;
930 [label="X[7] <= 0.237\ngini = 0.698\nsamples = 71\nvalue = [20, 18, 28, 0, 3, 0, 2]"] ;
924 -> 930 ;
931 [label="X[1] <= 2.5\ngini = 0.549\nsamples = 18\nvalue = [4, 3, 11, 0, 0, 0, 0]"] ;
930 -> 931 ;
932 [label="X[0] <= 5.5\ngini = 0.198\nsamples = 9\nvalue = [0, 1, 8, 0, 0, 0, 0]"] ;
931 -> 932 ;
933 [label="gini = 0.0\nsamples = 8\nvalue = [0, 0, 8, 0, 0, 0, 0]"] ;
932 -> 933 ;
934 [label="gini = 0.0\nsamples = 1\nvalue = [0, 1, 0, 0, 0, 0, 0]"] ;
932 -> 934 ;
935 [label="X[7] <= 0.201\ngini = 0.642\nsamples = 9\nvalue = [4, 2, 3, 0, 0, 0, 0]"] ;
931 -> 935 ;
936 [label="gini = 0.0\nsamples = 2\nvalue = [2, 0, 0, 0, 0, 0, 0]"] ;
935 -> 936 ;
937 [label="gini = 0.653\nsamples = 7\nvalue = [2, 2, 3, 0, 0, 0, 0]"] ;
935 -> 937 ;
938 [label="X[7] <= 0.278\ngini = 0.721\nsamples = 53\nvalue = [16, 15, 17, 0, 3, 0, 2]"] ;
930 -> 938 ;
939 [label="X[7] <= 0.24\ngini = 0.67\nsamples = 24\nvalue = [10, 9, 2, 0, 1, 0, 2]"] ;
938 -> 939 ;
940 [label="gini = 0.0\nsamples = 3\nvalue = [0, 3, 0, 0, 0, 0, 0]"] ;
939 -> 940 ;
941 [label="gini = 0.671\nsamples = 21\nvalue = [10, 6, 2, 0, 1, 0, 2]"] ;
939 -> 941 ;
942 [label="X[7] <= 0.322\ngini = 0.642\nsamples = 29\nvalue = [6, 6, 15, 0, 2, 0, 0]"] ;
938 -> 942 ;
943 [label="gini = 0.388\nsamples = 17\nvalue = [2, 2, 13, 0, 0, 0, 0]"] ;
942 -> 943 ;
944 [label="gini = 0.722\nsamples = 12\nvalue = [4, 4, 2, 0, 2, 0, 0]"] ;
942 -> 944 ;
945 [label="X[7] <= 0.185\ngini = 0.697\nsamples = 524\nvalue = [74, 231, 139, 4, 71, 1, 4]"] ;
885 -> 945 ;
946 [label="X[7] <= 0.165\ngini = 0.692\nsamples = 481\nvalue = [64, 219, 119, 4, 71, 1, 3]"] ;
945 -> 946 ;
947 [label="X[7] <= 0.096\ngini = 0.697\nsamples = 314\nvalue = [48, 129, 100, 3, 31, 1, 2]"] ;
946 -> 947 ;
948 [label="X[0] <= 1.5\ngini = 0.637\nsamples = 33\nvalue = [9, 17, 3, 0, 4, 0, 0]"] ;
947 -> 948 ;
949 [label="X[7] <= 0.093\ngini = 0.519\nsamples = 9\nvalue = [6, 1, 1, 0, 1, 0, 0]"] ;
948 -> 949 ;
950 [label="gini = 0.0\nsamples = 4\nvalue = [4, 0, 0, 0, 0, 0, 0]"] ;
949 -> 950 ;
951 [label="X[1] <= 2.0\ngini = 0.72\nsamples = 5\nvalue = [2, 1, 1, 0, 1, 0, 0]"] ;
949 -> 951 ;
952 [label="gini = 0.5\nsamples = 2\nvalue = [1, 0, 1, 0, 0, 0, 0]"] ;
951 -> 952 ;
953 [label="gini = 0.667\nsamples = 3\nvalue = [1, 1, 0, 0, 1, 0, 0]"] ;
951 -> 953 ;
954 [label="X[7] <= 0.095\ngini = 0.517\nsamples = 24\nvalue = [3, 16, 2, 0, 3, 0, 0]"] ;
948 -> 954 ;
955 [label="X[7] <= 0.091\ngini = 0.623\nsamples = 18\nvalue = [3, 10, 2, 0, 3, 0, 0]"] ;
954 -> 955 ;
956 [label="gini = 0.314\nsamples = 11\nvalue = [1, 9, 1, 0, 0, 0, 0]"] ;
955 -> 956 ;
957 [label="gini = 0.694\nsamples = 7\nvalue = [2, 1, 1, 0, 3, 0, 0]"] ;
955 -> 957 ;
958 [label="gini = 0.0\nsamples = 6\nvalue = [0, 6, 0, 0, 0, 0, 0]"] ;
954 -> 958 ;
959 [label="X[7] <= 0.163\ngini = 0.693\nsamples = 281\nvalue = [39, 112, 97, 3, 27, 1, 2]"] ;
947 -> 959 ;
960 [label="X[2] <= 22.5\ngini = 0.691\nsamples = 279\nvalue = [37, 112, 97, 3, 27, 1, 2]"] ;
959 -> 960 ;
961 [label="X[0] <= 5.5\ngini = 0.693\nsamples = 263\nvalue = [33, 102, 95, 3, 27, 1, 2]"] ;
960 -> 961 ;
962 [label="gini = 0.681\nsamples = 223\nvalue = [21, 87, 85, 2, 25, 1, 2]"] ;
961 -> 962 ;
963 [label="gini = 0.704\nsamples = 40\nvalue = [12, 15, 10, 1, 2, 0, 0]"] ;
961 -> 963 ;
964 [label="X[0] <= 2.5\ngini = 0.531\nsamples = 16\nvalue = [4, 10, 2, 0, 0, 0, 0]"] ;
960 -> 964 ;
965 [label="gini = 0.571\nsamples = 7\nvalue = [4, 2, 1, 0, 0, 0, 0]"] ;
964 -> 965 ;
966 [label="gini = 0.198\nsamples = 9\nvalue = [0, 8, 1, 0, 0, 0, 0]"] ;
964 -> 966 ;
967 [label="gini = 0.0\nsamples = 2\nvalue = [2, 0, 0, 0, 0, 0, 0]"] ;
959 -> 967 ;
968 [label="X[7] <= 0.178\ngini = 0.63\nsamples = 167\nvalue = [16, 90, 19, 1, 40, 0, 1]"] ;
946 -> 968 ;
969 [label="X[1] <= 2.5\ngini = 0.683\nsamples = 116\nvalue = [13, 51, 14, 1, 36, 0, 1]"] ;
968 -> 969 ;
970 [label="X[2] <= 0.5\ngini = 0.705\nsamples = 93\nvalue = [11, 36, 13, 1, 31, 0, 1]"] ;
969 -> 970 ;
971 [label="gini = 0.0\nsamples = 4\nvalue = [0, 4, 0, 0, 0, 0, 0]"] ;
970 -> 971 ;
972 [label="X[0] <= 2.5\ngini = 0.713\nsamples = 89\nvalue = [11, 32, 13, 1, 31, 0, 1]"] ;
970 -> 972 ;
973 [label="gini = 0.718\nsamples = 34\nvalue = [4, 7, 8, 0, 14, 0, 1]"] ;
972 -> 973 ;
974 [label="gini = 0.673\nsamples = 55\nvalue = [7, 25, 5, 1, 17, 0, 0]"] ;
972 -> 974 ;
975 [label="X[7] <= 0.174\ngini = 0.518\nsamples = 23\nvalue = [2, 15, 1, 0, 5, 0, 0]"] ;
969 -> 975 ;
976 [label="X[7] <= 0.171\ngini = 0.537\nsamples = 18\nvalue = [2, 11, 0, 0, 5, 0, 0]"] ;
975 -> 976 ;
977 [label="gini = 0.512\nsamples = 17\nvalue = [2, 11, 0, 0, 4, 0, 0]"] ;
976 -> 977 ;
978 [label="gini = 0.0\nsamples = 1\nvalue = [0, 0, 0, 0, 1, 0, 0]"] ;
976 -> 978 ;
979 [label="X[0] <= 0.5\ngini = 0.32\nsamples = 5\nvalue = [0, 4, 1, 0, 0, 0, 0]"] ;
975 -> 979 ;
980 [label="gini = 0.5\nsamples = 2\nvalue = [0, 1, 1, 0, 0, 0, 0]"] ;
979 -> 980 ;
981 [label="gini = 0.0\nsamples = 3\nvalue = [0, 3, 0, 0, 0, 0, 0]"] ;
979 -> 981 ;
982 [label="X[2] <= 3.0\ngini = 0.396\nsamples = 51\nvalue = [3, 39, 5, 0, 4, 0, 0]"] ;
968 -> 982 ;
983 [label="X[0] <= 4.0\ngini = 0.667\nsamples = 3\nvalue = [1, 1, 0, 0, 1, 0, 0]"] ;
982 -> 983 ;
984 [label="gini = 0.0\nsamples = 1\nvalue = [0, 0, 0, 0, 1, 0, 0]"] ;
983 -> 984 ;
985 [label="X[1] <= 2.0\ngini = 0.5\nsamples = 2\nvalue = [1, 1, 0, 0, 0, 0, 0]"] ;
983 -> 985 ;
986 [label="gini = 0.0\nsamples = 1\nvalue = [0, 1, 0, 0, 0, 0, 0]"] ;
985 -> 986 ;
987 [label="gini = 0.0\nsamples = 1\nvalue = [1, 0, 0, 0, 0, 0, 0]"] ;
985 -> 987 ;
988 [label="X[1] <= 1.5\ngini = 0.357\nsamples = 48\nvalue = [2, 38, 5, 0, 3, 0, 0]"] ;
982 -> 988 ;
989 [label="X[7] <= 0.182\ngini = 0.426\nsamples = 26\nvalue = [1, 19, 5, 0, 1, 0, 0]"] ;
988 -> 989 ;
990 [label="gini = 0.381\nsamples = 25\nvalue = [0, 19, 5, 0, 1, 0, 0]"] ;
989 -> 990 ;
991 [label="gini = 0.0\nsamples = 1\nvalue = [1, 0, 0, 0, 0, 0, 0]"] ;
989 -> 991 ;
992 [label="X[2] <= 11.0\ngini = 0.244\nsamples = 22\nvalue = [1, 19, 0, 0, 2, 0, 0]"] ;
988 -> 992 ;
993 [label="gini = 0.375\nsamples = 4\nvalue = [1, 3, 0, 0, 0, 0, 0]"] ;
992 -> 993 ;
994 [label="gini = 0.198\nsamples = 18\nvalue = [0, 16, 0, 0, 2, 0, 0]"] ;
992 -> 994 ;
995 [label="X[7] <= 0.249\ngini = 0.651\nsamples = 43\nvalue = [10, 12, 20, 0, 0, 0, 1]"] ;
945 -> 995 ;
996 [label="X[0] <= 5.5\ngini = 0.657\nsamples = 37\nvalue = [10, 12, 15, 0, 0, 0, 0]"] ;
995 -> 996 ;
997 [label="X[7] <= 0.203\ngini = 0.627\nsamples = 32\nvalue = [6, 11, 15, 0, 0, 0, 0]"] ;
996 -> 997 ;
998 [label="X[2] <= 5.0\ngini = 0.498\nsamples = 15\nvalue = [3, 2, 10, 0, 0, 0, 0]"] ;
997 -> 998 ;
999 [label="gini = 0.0\nsamples = 1\nvalue = [0, 1, 0, 0, 0, 0, 0]"] ;
998 -> 999 ;
1000 [label="X[0] <= 2.0\ngini = 0.439\nsamples = 14\nvalue = [3, 1, 10, 0, 0, 0, 0]"] ;
998 -> 1000 ;
1001 [label="gini = 0.568\nsamples = 9\nvalue = [3, 1, 5, 0, 0, 0, 0]"] ;
1000 -> 1001 ;
1002 [label="gini = 0.0\nsamples = 5\nvalue = [0, 0, 5, 0, 0, 0, 0]"] ;
1000 -> 1002 ;
1003 [label="X[2] <= 9.5\ngini = 0.602\nsamples = 17\nvalue = [3, 9, 5, 0, 0, 0, 0]"] ;
997 -> 1003 ;
1004 [label="X[7] <= 0.229\ngini = 0.375\nsamples = 4\nvalue = [0, 1, 3, 0, 0, 0, 0]"] ;
1003 -> 1004 ;
1005 [label="gini = 0.0\nsamples = 3\nvalue = [0, 0, 3, 0, 0, 0, 0]"] ;
1004 -> 1005 ;
1006 [label="gini = 0.0\nsamples = 1\nvalue = [0, 1, 0, 0, 0, 0, 0]"] ;
1004 -> 1006 ;
1007 [label="X[1] <= 0.5\ngini = 0.544\nsamples = 13\nvalue = [3, 8, 2, 0, 0, 0, 0]"] ;
1003 -> 1007 ;
1008 [label="gini = 0.667\nsamples = 6\nvalue = [2, 2, 2, 0, 0, 0, 0]"] ;
1007 -> 1008 ;
1009 [label="gini = 0.245\nsamples = 7\nvalue = [1, 6, 0, 0, 0, 0, 0]"] ;
1007 -> 1009 ;
1010 [label="X[2] <= 9.0\ngini = 0.32\nsamples = 5\nvalue = [4, 1, 0, 0, 0, 0, 0]"] ;
996 -> 1010 ;
1011 [label="gini = 0.0\nsamples = 3\nvalue = [3, 0, 0, 0, 0, 0, 0]"] ;
1010 -> 1011 ;
1012 [label="X[2] <= 13.0\ngini = 0.5\nsamples = 2\nvalue = [1, 1, 0, 0, 0, 0, 0]"] ;
1010 -> 1012 ;
1013 [label="gini = 0.0\nsamples = 1\nvalue = [0, 1, 0, 0, 0, 0, 0]"] ;
1012 -> 1013 ;
1014 [label="gini = 0.0\nsamples = 1\nvalue = [1, 0, 0, 0, 0, 0, 0]"] ;
1012 -> 1014 ;
1015 [label="X[7] <= 0.263\ngini = 0.278\nsamples = 6\nvalue = [0, 0, 5, 0, 0, 0, 1]"] ;
995 -> 1015 ;
1016 [label="gini = 0.5\nsamples = 2\nvalue = [0, 0, 1, 0, 0, 0, 1]"] ;
1015 -> 1016 ;
1017 [label="gini = 0.0\nsamples = 4\nvalue = [0, 0, 4, 0, 0, 0, 0]"] ;
1015 -> 1017 ;
1018 [label="X[5] <= 6.5\ngini = 0.705\nsamples = 4286\nvalue = [828, 1257, 1740, 46, 354, 22, 39]"] ;
4 -> 1018 ;
1019 [label="X[5] <= 4.0\ngini = 0.692\nsamples = 2928\nvalue = [459, 978, 1189, 26, 242, 12, 22]"] ;
1018 -> 1019 ;
1020 [label="X[3] <= 2.5\ngini = 0.676\nsamples = 1932\nvalue = [295, 566, 884, 23, 136, 8, 20]"] ;
1019 -> 1020 ;
1021 [label="X[7] <= 0.093\ngini = 0.688\nsamples = 1044\nvalue = [175, 346, 430, 19, 62, 1, 11]"] ;
1020 -> 1021 ;
1022 [label="X[7] <= 0.086\ngini = 0.671\nsamples = 303\nvalue = [61, 74, 144, 4, 15, 0, 5]"] ;
1021 -> 1022 ;
1023 [label="X[7] <= 0.073\ngini = 0.695\nsamples = 243\nvalue = [49, 66, 105, 4, 14, 0, 5]"] ;
1022 -> 1023 ;
1024 [label="X[2] <= 2.5\ngini = 0.679\nsamples = 211\nvalue = [45, 50, 98, 3, 12, 0, 3]"] ;
1023 -> 1024 ;
1025 [label="X[7] <= 0.064\ngini = 0.707\nsamples = 50\nvalue = [8, 19, 17, 3, 3, 0, 0]"] ;
1024 -> 1025 ;
1026 [label="X[7] <= 0.042\ngini = 0.72\nsamples = 45\nvalue = [8, 14, 17, 3, 3, 0, 0]"] ;
1025 -> 1026 ;
1027 [label="X[7] <= 0.038\ngini = 0.537\nsamples = 18\nvalue = [2, 5, 11, 0, 0, 0, 0]"] ;
1026 -> 1027 ;
1028 [label="gini = 0.642\nsamples = 9\nvalue = [2, 4, 3, 0, 0, 0, 0]"] ;
1027 -> 1028 ;
1029 [label="gini = 0.198\nsamples = 9\nvalue = [0, 1, 8, 0, 0, 0, 0]"] ;
1027 -> 1029 ;
1030 [label="X[8] <= 2.0\ngini = 0.765\nsamples = 27\nvalue = [6, 9, 6, 3, 3, 0, 0]"] ;
1026 -> 1030 ;
1031 [label="gini = 0.494\nsamples = 9\nvalue = [2, 6, 1, 0, 0, 0, 0]"] ;
1030 -> 1031 ;
1032 [label="gini = 0.79\nsamples = 18\nvalue = [4, 3, 5, 3, 3, 0, 0]"] ;
1030 -> 1032 ;
1033 [label="gini = 0.0\nsamples = 5\nvalue = [0, 5, 0, 0, 0, 0, 0]"] ;
1025 -> 1033 ;
1034 [label="X[2] <= 16.5\ngini = 0.654\nsamples = 161\nvalue = [37, 31, 81, 0, 9, 0, 3]"] ;
1024 -> 1034 ;
1035 [label="X[0] <= 5.5\ngini = 0.578\nsamples = 86\nvalue = [17, 10, 52, 0, 5, 0, 2]"] ;
1034 -> 1035 ;
1036 [label="X[7] <= 0.069\ngini = 0.482\nsamples = 60\nvalue = [6, 7, 42, 0, 4, 0, 1]"] ;
1035 -> 1036 ;
1037 [label="gini = 0.396\nsamples = 51\nvalue = [2, 6, 39, 0, 3, 0, 1]"] ;
1036 -> 1037 ;
1038 [label="gini = 0.667\nsamples = 9\nvalue = [4, 1, 3, 0, 1, 0, 0]"] ;
1036 -> 1038 ;
1039 [label="X[7] <= 0.039\ngini = 0.657\nsamples = 26\nvalue = [11, 3, 10, 0, 1, 0, 1]"] ;
1035 -> 1039 ;
1040 [label="gini = 0.0\nsamples = 2\nvalue = [0, 0, 2, 0, 0, 0, 0]"] ;
1039 -> 1040 ;
1041 [label="gini = 0.66\nsamples = 24\nvalue = [11, 3, 8, 0, 1, 0, 1]"] ;
1039 -> 1041 ;
1042 [label="X[7] <= 0.058\ngini = 0.698\nsamples = 75\nvalue = [20, 21, 29, 0, 4, 0, 1]"] ;
1034 -> 1042 ;
1043 [label="X[0] <= 3.5\ngini = 0.701\nsamples = 54\nvalue = [17, 17, 17, 0, 2, 0, 1]"] ;
1042 -> 1043 ;
1044 [label="gini = 0.696\nsamples = 36\nvalue = [15, 10, 8, 0, 2, 0, 1]"] ;
1043 -> 1044 ;
1045 [label="gini = 0.586\nsamples = 18\nvalue = [2, 7, 9, 0, 0, 0, 0]"] ;
1043 -> 1045 ;
1046 [label="X[0] <= 0.5\ngini = 0.608\nsamples = 21\nvalue = [3, 4, 12, 0, 2, 0, 0]"] ;
1042 -> 1046 ;
1047 [label="gini = 0.625\nsamples = 4\nvalue = [0, 2, 1, 0, 1, 0, 0]"] ;
1046 -> 1047 ;
1048 [label="gini = 0.533\nsamples = 17\nvalue = [3, 2, 11, 0, 1, 0, 0]"] ;
1046 -> 1048 ;
1049 [label="X[0] <= 1.5\ngini = 0.678\nsamples = 32\nvalue = [4, 16, 7, 1, 2, 0, 2]"] ;
1023 -> 1049 ;
1050 [label="X[2] <= 4.5\ngini = 0.64\nsamples = 10\nvalue = [0, 3, 5, 1, 0, 0, 1]"] ;
1049 -> 1050 ;
1051 [label="X[7] <= 0.075\ngini = 0.444\nsamples = 3\nvalue = [0, 2, 0, 0, 0, 0, 1]"] ;
1050 -> 1051 ;
1052 [label="gini = 0.0\nsamples = 1\nvalue = [0, 1, 0, 0, 0, 0, 0]"] ;
1051 -> 1052 ;
1053 [label="X[7] <= 0.079\ngini = 0.5\nsamples = 2\nvalue = [0, 1, 0, 0, 0, 0, 1]"] ;
1051 -> 1053 ;
1054 [label="gini = 0.0\nsamples = 1\nvalue = [0, 0, 0, 0, 0, 0, 1]"] ;
1053 -> 1054 ;
1055 [label="gini = 0.0\nsamples = 1\nvalue = [0, 1, 0, 0, 0, 0, 0]"] ;
1053 -> 1055 ;
1056 [label="X[6] <= 2.5\ngini = 0.449\nsamples = 7\nvalue = [0, 1, 5, 1, 0, 0, 0]"] ;
1050 -> 1056 ;
1057 [label="gini = 0.0\nsamples = 4\nvalue = [0, 0, 4, 0, 0, 0, 0]"] ;
1056 -> 1057 ;
1058 [label="X[1] <= 0.5\ngini = 0.667\nsamples = 3\nvalue = [0, 1, 1, 1, 0, 0, 0]"] ;
1056 -> 1058 ;
1059 [label="gini = 0.0\nsamples = 1\nvalue = [0, 0, 0, 1, 0, 0, 0]"] ;
1058 -> 1059 ;
1060 [label="gini = 0.5\nsamples = 2\nvalue = [0, 1, 1, 0, 0, 0, 0]"] ;
1058 -> 1060 ;
1061 [label="X[2] <= 22.5\ngini = 0.599\nsamples = 22\nvalue = [4, 13, 2, 0, 2, 0, 1]"] ;
1049 -> 1061 ;
1062 [label="X[7] <= 0.074\ngini = 0.567\nsamples = 21\nvalue = [4, 13, 2, 0, 1, 0, 1]"] ;
1061 -> 1062 ;
1063 [label="gini = 0.0\nsamples = 4\nvalue = [0, 4, 0, 0, 0, 0, 0]"] ;
1062 -> 1063 ;
1064 [label="X[7] <= 0.077\ngini = 0.644\nsamples = 17\nvalue = [4, 9, 2, 0, 1, 0, 1]"] ;
1062 -> 1064 ;
